erpnext/patches.txt.utf8	41.74924530554364	-30.214435668742322	-25.961986352249497	38.59550606265189	9.80727017639614	2.274640737567165	1.4619017656296172	-7.80965055542772	-6.967280406420649	9.64264347913921	-7.431123381949506	-9.248621850770583	-3.8430943292312185	-11.029725195466664	-8.872713647930063	-20.03218093873157	-4.142515998362618	15.809085077724788	18.896921320632632	-17.612521207239915
erpnext/__init__.py.utf8	27.809809468859708	-9.450979203675557	-15.004058298706807	26.655749442233628	6.8866740731896	6.453100951002956	-19.573966246705417	3.933408025660769	-6.118583143346686	1.6105936303876447	-19.04125418407302	6.637473943308548	-16.819121781966853	19.637919882626257	-8.904742235093128	-7.782292570242531	0.0702628321885198	-2.9439605451842743	3.529407211217327	-0.7028810676263183
erpnext/exceptions.py.utf8	5.280404597996492	2.0998033993931227	0.3875485166467409	0.8015199324558244	0.08370831202893159	-0.24790575850177635	-0.045010488020664166	0.8968791398446393	-1.6973424285828602	-2.346536493279452	-2.0598697828739594	0.608454945390887	-0.7455700198020004	-0.7633613010009425	0.17002061569660196	-1.4118392014382117	0.7546623198210096	-0.8536292932325865	0.36761548408196904	-1.1833403570489607
erpnext/modules.txt.utf8	0.4393792969229469	-0.34148035294447066	-0.2772034671296237	0.5925269319106242	0.1903615674981247	-0.6775188364838138	0.05207998081199283	0.08345863800011334	-0.250163395553942	-0.028060310870569333	-0.4545812606014547	-0.27148550639114666	0.6375808819930726	-0.0551900209506265	-0.01926721162810005	-0.2539256904354375	0.0852925351278578	-0.4381404994834737	0.2621035735598653	-0.3357901381539491
erpnext/hooks.py.utf8	62.96464384963392	-51.64131170213287	-36.35278185331355	47.968836173377476	18.6211402949991	-2.012925409551948	7.207211998141883	7.729128681420196	-13.02022848055488	3.0558728255170498	-5.641243659539097	11.827753043788864	5.861533169002608	-25.204996200507935	-16.563584239634753	-18.934247273281088	-15.742871237394617	50.01445509153598	13.643211625602351	-9.082874561142678
erpnext/agriculture/setup.py.utf8	18.762848987331207	-15.77921408146184	-3.85405905489519	13.964733369506314	5.488869717945149	-2.1317229143501084	4.443628582632411	2.087311237075118	6.647310490118748	3.9415482512219344	9.867710726606177	11.539814520381817	3.1768779394039304	-0.6600748270144118	-10.383722490005754	-0.2574872866166326	-3.157062951973724	-3.682034234560919	2.255803974247874	9.190246517471136
erpnext/agriculture/workspace/agriculture/agriculture.json.utf8	8.354273353978709	-12.182203582018397	-1.5178635848220818	9.772766025196557	2.9024154203058448	-9.066857179232938	-7.259828150377272	4.006377308951219	10.222234815899446	-1.4229818275090433	1.0221179037787798	2.185305499439209	-0.3595450476883517	4.067155447863055	-2.4281744187167735	5.340926323085908	2.438048775553088	-0.05844984036632241	1.2625882702449747	0.23074133219882004
erpnext/agriculture/doctype/disease/disease.js.utf8	1.9807329080697402	0.9731743170740144	0.3025492302811329	0.6852171535442614	-1.8326852530664892	-0.04312836312188303	-0.758838375131901	0.4826038548621864	-0.20418544214770826	2.1077579093851746	-0.48238779257785624	-0.24080710077777756	0.0831308123486692	-0.5653138721677594	0.1730596151131406	0.7592988575124905	0.25304251375246645	-0.3498152874720364	-0.28427819571758245	0.2663567630220959
erpnext/agriculture/doctype/disease/disease.py.utf8	6.986318982744236	2.6600036711420336	1.1638243450377665	1.5755355466346106	-0.1373885216822918	1.1051172972417371	-0.8131671256834903	-1.5409396743005057	-2.7547083216341	-0.7854199428954782	1.1918578266297795	-0.015384802809953168	-0.19545426879007055	0.5248449313412104	-1.101703178431341	2.3311337425472343	1.03498654079224	-0.2090362556768555	-1.720975814044413	-1.559630062840143
erpnext/agriculture/doctype/disease/disease.json.utf8	24.845478607249685	-52.82234470541275	17.91918573464045	-19.189041964382817	-4.16773077364834	1.7336507328883917	2.476650219028069	-2.4939514334088786	-4.624170182453859	3.7647567388528342	-1.6453185711036784	-0.40927058230108887	-1.4159746580964976	3.5160045292802202	-1.6311015372723594	0.20806537015171234	0.25843249534435847	-0.26900351668604766	0.015432829271359267	-1.6050941688114517
erpnext/agriculture/doctype/disease/test_records.json.utf8	0.5594147679998832	-0.7570113312559126	-0.26019584941049634	0.29080650154709964	0.10263296399022047	-0.2516544609469985	-0.21879882691615005	-0.19360009023839486	-0.4928562498672139	-0.03846692639278447	0.6460273759984237	-0.06642938440640324	-0.1351984442750299	0.27857519360934024	-0.40497835143813293	0.2924264412944952	0.2786643016346187	0.07282719932330424	-0.4831396447518503	-0.8043845200758278
erpnext/agriculture/doctype/disease/test_disease.py.utf8	4.546497713222033	1.8215218257124683	-1.5606127684332276	-1.049628391303292	0.718599312305922	0.5927112668533602	0.038875136639443586	1.4127739612406915	-1.8485394083905768	-0.01209679589547274	0.07091524778910221	0.009071079716938097	-0.0732848850605842	0.03198390479492766	-0.2423871415882738	1.1326432965201831	0.3456074352227266	-0.2612609731989273	-0.5579430169776072	-0.10422696540960108
erpnext/agriculture/doctype/disease/test_disease.js.utf8	3.4436226867716866	-0.9345977128365599	-7.105047830902674	-3.151421786435864	-1.063591821639446	-0.8895673460399522	-0.6386537106446804	-1.4975306827231778	-0.13864790510757397	-0.049258998375389024	0.41691324075650754	-0.12403162231856805	-0.036746461190055875	0.4083226946888452	-0.6627996821633998	0.6480210687770265	0.46949964020968027	-0.045487533698175125	-0.5880808186666533	-0.9352500359934403
erpnext/agriculture/doctype/linked_soil_analysis/linked_soil_analysis.py.utf8	5.113952863068095	2.803817489822277	1.8507871628370864	0.1813232955280653	-1.0186293400168838	-0.11404277673181076	-0.043603241720678663	-0.6377826677238001	0.36192673887863974	-0.15584431168614787	-0.10388913162188557	-0.02652373734811636	-0.14906099607862527	0.24464364324839244	-0.0022724371640715016	0.21038703054573826	0.14084523485074416	0.007845142377675675	-0.14640083986513536	-0.06660932747675857
erpnext/agriculture/doctype/linked_soil_analysis/linked_soil_analysis.json.utf8	6.179006691617074	-11.732985837098505	4.112058845170687	-3.9321896736641015	-0.9681387541891129	-0.203671563679315	0.5269849191438858	-0.55353807401044	-0.7037578801430582	0.06262073641302116	-0.03543907824548448	0.11659972189689755	0.42120027579406366	-0.7290950867882124	-2.1134476644360856	-1.0334461323917703	0.07895921742590613	-0.23633411887511208	0.009163320988272557	-0.3772486518792606
erpnext/agriculture/doctype/agriculture_analysis_criteria/test_agriculture_analysis_criteria.js.utf8	3.176905000325036	-0.42903424246534855	-7.282516177761493	-3.801233970195338	-1.3616004461057016	-0.6826581068547442	-0.49759369607878867	-1.816615891244092	0.39009518412709016	0.12230406983297593	-0.28170420899175386	0.18834952984506706	0.17105755443545081	0.30587351501425614	-0.40334117629325245	0.5444039025048627	0.18393526673752647	-0.350583464809485	0.1226066092674853	-0.016615070063091424
erpnext/agriculture/doctype/agriculture_analysis_criteria/test_agriculture_analysis_criteria.py.utf8	3.908029486048798	2.0115292569241765	-0.06602001664944251	-1.2207110552121447	0.5293272146306469	-0.05649646915688216	0.07109741148958694	1.893862218539368	-0.35617289078084097	0.2721198367124515	-0.11928560795202334	-0.03429510079253163	-0.21539222855891854	0.03740771007524741	-0.10378399159775736	0.19481211092111117	0.07847035357541202	-0.1899194252352677	-0.2312060125610665	-0.1331784555574219
erpnext/agriculture/doctype/agriculture_analysis_criteria/agriculture_analysis_criteria.js.utf8	2.013709722066568	0.9609638798484069	0.3060881134089292	0.6724589291289506	-1.8550742659913828	-0.058974018255086386	-0.7558924653104823	0.4845537723311806	-0.21934901005291105	2.1273549358394765	-0.4582738469571915	-0.17462092397461898	0.09812087885672077	-0.5527547254157398	0.15227598123746322	0.7812413867140842	0.23918174440081022	-0.3741939559257854	-0.2403206563490587	0.3131706803749287
erpnext/agriculture/doctype/agriculture_analysis_criteria/agriculture_analysis_criteria.py.utf8	5.086616044458897	2.86135620731112	1.8638535207641187	0.09571449755230098	-1.0592444343037153	-0.11202017882414583	0.03536298659873359	-0.6795035817460338	0.21482125130705926	-0.08327871324215153	-0.11048317725855168	0.009109394909087448	-0.12772119581267377	0.2206965601839131	0.017071939984945605	0.15482919498089898	0.10471236220101927	0.017246882408963472	-0.07396915463006878	-0.03131218047567854
erpnext/agriculture/doctype/agriculture_analysis_criteria/agriculture_analysis_criteria.json.utf8	13.868709657881423	-27.213944896754366	9.363521154869764	-9.14998676309689	-1.5457561057279021	-1.4527391455889738	1.6990914534889656	-1.186363819793011	-2.4398732103476597	1.4235874726182114	-0.1518155769630062	-0.18557655691356945	-0.06634295557895646	0.00790511428577445	-2.375420676826289	-0.5258493947753191	-0.0008623380161050798	0.15977494631445702	-0.08835604929354972	-0.9421083431319907
erpnext/agriculture/doctype/soil_texture_criteria/soil_texture_criteria.json.utf8	14.921222895354738	-31.826455950692687	10.4118012385596	-12.186909465449038	-3.2347900527845117	2.239162465942104	1.4616520365452488	-2.4082431390626406	-3.3334872144975107	2.979912375577124	-1.4512079539321459	0.42995199239209164	-0.9356833133362151	2.7772155172574973	-2.8051082185225775	-1.5277346636815845	0.022517258932381053	-0.40790228051457417	0.44737694784799176	-0.48389198295817
erpnext/agriculture/doctype/soil_texture_criteria/soil_texture_criteria.py.utf8	5.0745903220502475	2.869611384220394	1.8651474188970012	0.09899829440348572	-1.0543029101337633	-0.09490410147996078	0.031933487140221414	-0.6849365325875	0.21898535223992197	-0.09659690309997637	-0.11207983841481052	-0.0030407662607030003	-0.1262166034098183	0.20167921456208096	0.05214800975966024	0.14996175800778683	0.10585214460224832	0.03891031586233527	-0.061333914297517035	-0.045814525353197876
erpnext/agriculture/doctype/detected_disease/detected_disease.json.utf8	11.81454219928194	-24.67833773826619	8.329362669839968	-8.543408521536959	-2.245397858590903	1.5012872702227638	0.5082400372757356	-1.2333606995705155	-2.357455929148566	1.6236780154132138	-0.5286935972504938	0.3050995175017357	-0.8203090899831164	1.9042809838491477	-2.8525382927251477	-0.9639430615503748	0.4461717193012846	-0.33586702517167244	-0.8802972637984889	-1.0172771836099894
erpnext/agriculture/doctype/detected_disease/detected_disease.py.utf8	5.0546103232089425	2.873648526106035	1.860940352006767	0.1082205731020847	-1.0377628935953938	-0.0960723356235491	0.03254606493453961	-0.6825801908477136	0.2300681162975517	-0.10341989845792801	-0.13467535066490233	-0.05698942668094596	-0.14308303117061646	0.20898352053521405	0.037468834226804214	0.13315727468545066	0.1189150468334297	0.041675684071334276	-0.11833904934723806	-0.07891680124990919
erpnext/agriculture/doctype/weather_parameter/weather_parameter.py.utf8	5.066457535879737	2.874499467347422	1.8625518153426823	0.11241835731427649	-1.043936045041748	-0.10305394423842065	0.028535339782719982	-0.6724552478623602	0.23897659107865218	-0.10678370288555783	-0.11818647808357213	-0.05041300947177067	-0.12951489729580506	0.1788123382627083	0.016676714107811658	0.16036315445231963	0.11724797417188323	0.038898415187272196	-0.06458619461240997	-0.05200694708954561
erpnext/agriculture/doctype/weather_parameter/weather_parameter.json.utf8	14.913090109184225	-31.82156786756566	10.40920563500528	-12.173489402538248	-3.2244231876924965	2.231012623183644	1.4582538891877472	-2.395761854337501	-3.3134959756587805	2.9697255757915433	-1.4573145936009078	0.382579749181024	-0.938981607222202	2.754348640958125	-2.8405795141744266	-1.5173332672370514	0.033913088502016034	-0.4079141811896371	0.44412466753309887	-0.49008440469451736
erpnext/agriculture/doctype/crop/crop.js.utf8	11.203199889623171	-2.624869708826436	-6.227706683638764	10.88068744833765	0.5311001895906455	11.11185119155635	15.112915585491171	-1.8277285379809483	5.999589693021723	8.615814792656916	2.469644126801994	-4.556380456076349	2.4713131063667855	-0.5576844167799963	3.251483397289661	-3.989087029272531	-0.14461686784741726	-3.2409066500996637	3.59148385093418	-0.14893236246373293
erpnext/agriculture/doctype/crop/crop.py.utf8	9.17901594501237	1.5321131190505255	-1.1180124461624827	5.2948966821389405	0.8899298440593805	4.934944364549629	3.4578758938517145	-2.5464146897955797	-4.715681363091216	-0.5362172929653165	2.6751469617330503	-0.6234864885776105	0.8288952251044258	0.18546098167217087	-0.8990021952878284	3.9491673177779987	1.3000792911669479	-1.4553499856824	-1.6467193306301111	-2.2454389006128426
erpnext/agriculture/doctype/crop/test_records.json.utf8	5.3041766199385005	-3.3979058225839105	-3.6251167063325664	5.834872256733044	2.1778607713394558	5.2012721418503185	8.390662501428274	-0.1450805160059035	2.0991761907327953	2.516631941554054	4.963611316389792	-2.6826835776639277	0.5448952190652133	1.0389138967469385	1.1034440373519805	-2.7264153324986995	2.6573086120172094	-1.2803785784708026	0.6067163768386411	-0.2115296992412042
erpnext/agriculture/doctype/crop/crop_dashboard.py.utf8	1.6906195847474406	0.42671627631218817	0.15088373693148405	0.25740266991342464	1.8662077727465278	0.5896702011862233	0.08405114324583629	-0.21349680496856221	0.33248517665322164	0.448501674527021	0.18676944427338762	-0.0005883883200837915	-0.04059783759110563	0.20650693099618778	0.010991318147404103	-0.04614384413745165	0.06915785826050369	0.18323686375069737	0.27130579606073263	-0.17896469395089348
erpnext/agriculture/doctype/crop/crop.json.utf8	95.16447003641451	-215.48605920210755	72.63494748710805	-79.99311832268634	-20.173810089462826	22.4103150608934	9.1008409293446	-9.228889832752332	-15.05190661989634	19.499293044646198	-10.803925305222425	-0.8488275526647856	-9.630412822804265	25.65149018681202	1.0563894715383217	2.4032658189334457	1.851741103483605	-4.520149781881023	0.07283741434316182	-1.441376038660019
erpnext/agriculture/doctype/crop/test_crop.py.utf8	4.814531030911518	1.85364286185238	-2.0582598054265344	-1.3561056022161078	0.7170626441459386	0.5970668664177452	0.11338040113281635	1.8917468164368791	-1.855484134054679	-0.1677924974876402	0.11008680539752126	0.003531573831367469	-0.10459234307179163	0.014573187074570332	-0.26837436254831454	1.1355054507677211	0.3604825282360485	-0.2767582502408419	-0.5999131017916997	-0.10937767475579342
erpnext/agriculture/doctype/crop/test_crop.js.utf8	10.779504477565554	-4.177801460024229	-14.340414493444728	1.6524838344576833	0.6817499770896895	5.598359034068085	9.211500627645961	-1.7653985483433892	2.6785364541148122	3.3066016091106563	4.835647887625455	-3.0774054336773604	0.6321623238836371	1.3098648957532644	0.6969624885637512	-2.7642988087435563	2.7998860804713575	-1.42685760402129	0.9003210006437529	-0.7628596077874272
erpnext/agriculture/doctype/fertilizer_content/fertilizer_content.py.utf8	5.066932492827395	2.8713922985800275	1.8577797974452777	0.10979122588335186	-1.0435283078955133	-0.09825786355247637	0.03054526879972951	-0.6863550626326133	0.22362060593654007	-0.09779449675412932	-0.12126017148805368	-0.027729571163918054	-0.13140224667562334	0.19370466345634327	0.04129902229765614	0.13635281928742327	0.11439045706018491	0.029826712528683776	-0.11267050449164806	-0.0915466685161999
erpnext/agriculture/doctype/fertilizer_content/fertilizer_content.json.utf8	8.396578194762292	-16.801168042053884	5.52530134350139	-5.912368599865753	-1.5038429437689893	0.4114186171159235	0.6719100680650467	-1.076922710612884	-1.1910883694569823	0.9294726484666336	-0.32645291364603185	0.2932963243475183	0.02027051024884964	0.46663200285137874	-2.1291261150440928	-0.94224755838835	-0.13961613694606653	-0.18113152723032033	0.03442402518311808	-0.12219243527289708
erpnext/agriculture/doctype/agriculture_task/agriculture_task.js.utf8	2.0060954020660358	0.9612935782063016	0.2950793194993611	0.6906575725965985	-1.8372039603168415	-0.041171491228273946	-0.7713337748475452	0.4756949083153934	-0.223019374657248	2.1204388516375388	-0.45575812954807343	-0.24803512334213815	0.07661692342534851	-0.5658383960069385	0.12481653571611874	0.8161250898809881	0.24960722201201696	-0.3688057440921696	-0.31694587902609267	0.09948187664835083
erpnext/agriculture/doctype/agriculture_task/agriculture_task.py.utf8	5.079001724458365	2.8616859056690145	1.8528447268545505	0.11391314101994884	-1.0413741286291738	-0.0942176517973334	0.019921677061670685	-0.6883624457618209	0.2111508867027223	-0.09019479744408898	-0.10796745984943366	-0.06430480445843167	-0.14922515124404606	0.20761288959271448	-0.01038750553639884	0.18971289814780312	0.115137839812226	0.022635094242579236	-0.1505943773071029	-0.2450009842022563
erpnext/agriculture/doctype/agriculture_task/agriculture_task.json.utf8	17.66370160126094	-38.027723188950574	12.658385254088227	-13.595161527144091	-3.614884273665312	2.897986351644627	0.9909184115710332	-2.0035159262117124	-3.889493429068305	3.3742290471785537	-1.235811076397995	0.3767529160525394	-1.9245484232297096	4.706068090494114	-3.2170810808384327	-0.991183544969319	0.538824366946531	-0.40302223731486836	-0.9276847169832939	-1.16857177962471
erpnext/agriculture/doctype/agriculture_task/test_agriculture_task.py.utf8	3.900415166048267	2.011858955282071	-0.07702881055901055	-1.2025124117444967	0.5471975203051884	-0.038693942130069714	0.055656101952523976	1.8850033545235807	-0.35984325538517786	0.26520375251051403	-0.11676989054290529	-0.10770930016005076	-0.23689618399029083	0.024324039484048827	-0.13124343711910186	0.2296958140880152	0.08889583118661874	-0.1845312134016519	-0.3078312352381005	-0.34686725928399964
erpnext/agriculture/doctype/agriculture_task/test_agriculture_task.js.utf8	3.154062040323441	-0.42804514739166444	-7.315542559490196	-3.7466380397923946	-1.3079895290820778	-0.6292505257743067	-0.5439176246899775	-1.8431924832914537	0.37908409031407936	0.10155581722716353	-0.2741570567643998	-0.0318930682574904	0.10654568814133403	0.2666225032406604	-0.48571951285728593	0.6490550120055748	0.21521169957114664	-0.3344188293086377	-0.10726905876361693	-0.6576814812428249
erpnext/agriculture/doctype/plant_analysis/plant_analysis.json.utf8	30.561283074152247	-65.24734781331287	21.793748682048335	-25.39131560952112	-5.8419047846985155	3.296257776462452	3.171082670888633	-1.9403064373570125	-5.762352321907123	4.843834813521869	-2.6569873029482483	-0.13245985824732298	-2.194761426558002	5.569516549729409	-1.25400502496655	0.19129556374489673	0.3041011826985588	-0.7572831791267002	0.10307427454588199	-0.7207772182959735
erpnext/agriculture/doctype/plant_analysis/plant_analysis.js.utf8	2.2425429348660346	0.5903963227643738	0.30597701759442264	0.5404843812449086	-1.8455459025790315	0.09126531727226976	-0.6565922427195758	0.38705720025816753	-0.28075502477862374	2.0147044592894696	-0.4255428899379076	-0.008397081968924951	0.052089997637727696	-0.4983936887489955	0.1501396769525494	0.6878695991284308	0.16094650722947312	-0.25579246736668726	-0.12282765102456067	0.11795441013073504
erpnext/agriculture/doctype/plant_analysis/plant_analysis.py.utf8	6.67172346886915	2.59494086052226	1.2114337447001513	1.2053234719384809	-0.7780442527852593	0.6529927138704017	-0.15245108675823754	-1.5689935133330897	-1.3999497598499282	0.01896045245252355	0.06347916689880945	0.39321043893294655	0.005270579132799425	0.15908952579302135	-0.45130653663088977	0.9068568809332619	-0.04572032242533546	0.37764589307850716	0.0464380070061788	-0.5061267923850782
erpnext/agriculture/doctype/plant_analysis/test_plant_analysis.py.utf8	3.8887284593603177	2.0206469052721063	-0.07053904675861233	-1.210249729699102	0.5470507106987252	-0.060246108534455216	0.07531883836884344	1.8908702400082864	-0.34115349806438416	0.24834042334076195	-0.14162023135084248	-0.085492583075506	-0.23248171802072126	0.046679592266414556	-0.11580941541554406	0.16936195477469346	0.0900849615641568	-0.18604113599446603	-0.2814650342392711	-0.15738080325781156
erpnext/agriculture/doctype/plant_analysis/test_plant_analysis.js.utf8	3.1190019202595973	-0.40168129742155895	-7.296073268089002	-3.7698499936562095	-1.3084299579014669	-0.6939070249874634	-0.4849294154410192	-1.8255918268373368	0.43515336227646045	0.05096582971790735	-0.3487080791882114	0.03475708299614393	0.11978908605004271	0.3336891615877576	-0.43941744774661257	0.4680534340656095	0.21877909070376084	-0.3389485970870801	-0.02817045576712866	-0.08922211316426043
erpnext/agriculture/doctype/water_analysis/water_analysis.py.utf8	9.808265961372303	2.9327986837229543	-2.2157051223856903	1.7412563718032914	-0.07580014772847322	3.090932592754744	0.7961742125219358	-0.2822406561809303	-7.936126739912287	-2.218939866189694	1.2578097288919385	1.218598815079909	0.6948416902666136	-0.1826455649229021	-1.205607213852738	5.100880431712349	0.7031779180248666	-0.4267539607558303	-1.082000698849274	0.3103644969644679
erpnext/agriculture/doctype/water_analysis/water_analysis.js.utf8	2.6186752830356723	0.5659889174521954	-0.29796568993412204	0.4123755592300813	-1.8200082467989644	0.16587851480381297	-0.7429800184565443	0.9220836278637152	-0.39669822822654616	1.9065433689972826	-0.3010735946708721	0.08034505653056417	-0.11228038214497424	-0.31775973989600065	-0.0616787737181627	0.7899030482014121	0.22849278502072068	-0.18225417016924547	-0.17079349073712813	0.06594771026030061
erpnext/agriculture/doctype/water_analysis/test_water_analysis.js.utf8	3.3570160315205606	-0.2884684957982323	-7.404776325175006	-3.616492230385563	-1.1823767771484446	-0.9132381931843779	-0.4231445476607222	-0.8059404703717787	0.24966056068300396	-0.16443475275871133	-0.28414704138062047	0.09886613917605407	0.16408230611213648	0.1290498650283906	-0.5744154809422739	0.20303661104343146	0.2093687917000012	-0.22960201928760215	0.15794486496161977	0.028786318824590314
erpnext/agriculture/doctype/water_analysis/water_analysis.json.utf8	49.81807655985122	-110.01438112774065	37.21224531724883	-43.17663617151993	-10.571038473076475	8.706665163043812	5.33492584086165	-4.474997647816644	-11.17581171039183	10.630807462791342	-5.631647814613937	0.23019763372810909	-5.27689031809011	13.19313035221815	-1.9809298641790105	-0.6259758322803503	0.16086453253017907	-0.8668219658359013	0.9329137825938336	-0.775541333093676
erpnext/agriculture/doctype/water_analysis/test_water_analysis.py.utf8	3.8872212567593856	2.0214281968831034	-0.07184052397030233	-1.2091471426586313	0.5486351326725394	-0.0592913022663021	0.07587847051490117	1.8936443072716538	-0.34285660945767316	0.2487866190668841	-0.1395248645607647	-0.08547019266298572	-0.23243154202429117	0.046288183249575364	-0.11490173776339031	0.17149629079841094	0.08933481568255361	-0.1846399819722724	-0.2813465615966722	-0.15601213797224828
erpnext/agriculture/doctype/linked_location/linked_location.json.utf8	6.137065029787857	-11.740648274601655	4.100350520953854	-3.886748864590097	-0.9283731401128021	-0.11179967844626854	0.502417234875046	-0.5516768259774821	-0.6684229595783282	0.06325199158974995	-0.040420671025810206	0.059400341718630886	0.41741358099624615	-0.8089874206322291	-2.0420302047164705	-1.1150990954973787	0.06402161656235632	-0.29650040368566977	0.06089556975788398	-0.5289296374823651
erpnext/agriculture/doctype/linked_location/linked_location.py.utf8	5.103467447610791	2.8019018804464895	1.8478600817828779	0.19268349779656646	-1.008687936497806	-0.09107480542354916	-0.04974516278788859	-0.6373173557155608	0.3707604690198221	-0.15568649789196576	-0.10513452981696698	-0.040823582392682994	-0.15000766977807964	0.2246705597873883	0.015581927765832365	0.1899737897693361	0.13711083463485668	-0.007196428824963706	-0.13346777767273252	-0.10452957387753468
erpnext/agriculture/doctype/water_analysis_criteria/water_analysis_criteria.json.utf8	14.927292828477487	-31.82773980506792	10.407197279200362	-12.182996873318807	-3.234123583679382	2.221148247410979	1.4650452614993899	-2.400907705914029	-3.3335929341983515	2.9840468707267145	-1.4476966156716466	0.44225388232108087	-0.9379388951851609	2.7960428570147045	-2.8344134725468377	-1.528008349237051	0.019878977937614124	-0.423817554287158	0.4374978123222238	-0.462367613461752
erpnext/agriculture/doctype/water_analysis_criteria/water_analysis_criteria.py.utf8	5.080660255172997	2.868327529845163	1.8605434595377655	0.10291088653371532	-1.0536364410286334	-0.11291832001108543	0.035326712094362375	-0.6776010994388879	0.21887963253908208	-0.09246240795038685	-0.1085685001543111	0.009261123668286197	-0.12847218525876394	0.22050655431928784	0.02284275573540076	0.14968807245232002	0.10321386360748143	0.022995042089751373	-0.071213049823285	-0.024290155856779648
erpnext/agriculture/doctype/fertilizer/fertilizer.py.utf8	5.910579313333485	2.3080210672943147	1.1485728569149445	1.2254551495932724	-0.825160092515107	0.7218726706084972	-0.18604796234596066	-1.3148559473316954	-1.3579462215231628	0.10788904996763772	0.03636048154888149	0.30229992739294187	0.04115842366692942	0.0314783637966456	-0.34051737673479304	0.9369589033887562	0.009708699659256229	0.31726205806992036	-0.019435071389628952	-0.5131339434570382
erpnext/agriculture/doctype/fertilizer/fertilizer.js.utf8	1.9708461843991985	0.9229700311357245	0.3017289810383804	0.6504080082997035	-1.6532823594842232	0.012222878556393339	-0.5337027244925349	0.43367986878011966	-0.21149095863547446	1.5348882259972547	-0.3318829856256554	-0.11019154355325927	0.006167713258645588	-0.4326976016993783	0.09731975502349591	0.6217634245912089	0.16663660847522133	-0.17428174448890352	-0.21443522525058298	0.005565263003742069
erpnext/agriculture/doctype/fertilizer/test_fertilizer.py.utf8	4.45733138071067	1.8535946720810779	-1.4137571842482501	-1.2074387828424795	0.6723657502780204	0.4123654915944535	0.22728497321526894	1.428775924086993	-1.7420349946391809	-0.11654721091968699	0.0882206633189711	0.012450683792650264	0.05158663387310173	-0.1619583775362497	-0.21163992703464143	1.1454640598938977	0.29867923577738587	-0.4061609315464401	-0.5931419458604995	0.03986379812307329
erpnext/agriculture/doctype/fertilizer/test_fertilizer.js.utf8	4.6048273982878305	-0.7548252475960583	-8.755668787722525	-2.238019222121762	-0.6785452336332468	1.1174098368094352	2.6707253786440726	-1.3051202488062048	1.3633761060084033	1.0882018000033373	0.4362664419143964	-0.49503028100242513	0.40785057928907664	0.2686186894416231	0.15458740918725042	-0.5576750141683132	0.03584561839863097	-0.6897513836226399	0.6451687366000131	0.28700077880042374
erpnext/agriculture/doctype/fertilizer/test_records.json.utf8	0.9359107614112828	-0.41510893781719765	-0.8590600355223368	1.3702967599561648	0.5588508325967184	1.4491754870575466	2.56985798447858	-0.0670904946431431	0.9588801697762871	0.8496290414396618	0.6409145876593616	-0.368607222169366	0.29896529727495774	0.1207560935232554	0.4671874113499266	-0.7587580839650039	-0.07804840778787381	-0.5268244624175769	0.5773758933469756	0.4736568989263145
erpnext/agriculture/doctype/fertilizer/fertilizer.json.utf8	25.110537181990434	-52.98556681136343	17.678256800434717	-18.569060533016188	-3.871358897069889	2.6641230581283333	3.8068475951365564	-2.3522079063710915	-3.496627546414166	3.9343497977803725	-1.4766511257116894	-0.7024774440646193	-0.9851150589433769	3.072291969581968	-0.5993853810181037	-0.027292510810534663	0.27943725031384237	-0.6600873242690671	0.47930084758529573	-0.8206544400387991
erpnext/agriculture/doctype/soil_texture/soil_texture.js.utf8	4.273954727519078	-0.7116268586446461	-1.2491764863117885	2.243118141509953	-2.5803283955302714	0.052263707199588894	-2.8896647940985196	-0.2334973613496435	-1.052645981469843	5.784705730849706	-1.7249751964804458	-0.30987177438986235	0.7690106453171389	-2.312201073571407	-0.4619116346512743	0.3036268611235147	-0.05525729643156069	0.5966145679890356	1.8652815875580677	-1.1033326070056346
erpnext/agriculture/doctype/soil_texture/soil_texture.py.utf8	13.715979230510166	-1.901642727168633	-1.8366081249610426	8.709202519199055	2.4153393039693407	7.393677286819158	1.3619803561059098	-5.828298896300548	-19.784764067894535	-4.472801017929976	1.8659324094035081	2.4307976383218066	3.1279250222418438	-0.08127881667866357	-3.578000881389433	10.058364096497106	2.2631234348415568	-1.407681108839576	-0.8828771837039784	0.2649959375991751
erpnext/agriculture/doctype/soil_texture/test_soil_texture.js.utf8	3.3333340408963292	-0.47324677459590264	-7.683880225798584	-3.544637812937417	-1.2775628824549645	-0.9398385042368141	-0.6775181293893812	-1.8743149602270401	0.44744863458340806	-0.002647306265427517	-0.41288878662675566	0.0005874974159845193	0.274065488980688	0.04105894748683495	-0.43116826915933176	0.16445186147432483	0.24191258159841408	-0.02764558271999096	0.26510358583672844	-0.1462600863698802
erpnext/agriculture/doctype/soil_texture/test_soil_texture.py.utf8	5.426127485015831	1.266645976783662	-2.5148737276363184	-0.7277612151635874	0.6759433881881476	0.88175676123624	-0.07563583543830202	0.6380801969084385	-2.5341608158497304	0.07271417499156678	0.0021100426404568463	0.21482975848556293	0.06523177847099539	-0.0543819385670662	-0.5433850236642532	1.3885629922390759	0.17090368437990072	0.030783741353246553	-0.19978294666039434	-0.5411682273333147
erpnext/agriculture/doctype/soil_texture/test_records.json.utf8	0.19207536837739886	-0.17340722277913678	-0.07754752064514457	0.17570098242366383	0.025944660383069612	-0.20312535427110937	-0.14810170535669645	0.014668797172754319	-0.06063031075267377	-0.06097076040390341	-0.08301820643654849	0.05603649162453971	0.07943852130005394	-0.0077604703240833186	-0.2002821511999282	-0.12817021726740968	0.09511360835158393	-0.07714149333249025	0.24182219484715153	0.10183689110768274
erpnext/agriculture/doctype/soil_texture/soil_texture.json.utf8	44.25120414847471	-97.22387248013118	32.87908205421239	-38.28654019135934	-9.435242120274484	7.05785679688025	4.5558663833805895	-3.744837350777408	-9.63245658231283	8.786472315348558	-5.07954077946011	0.1472558280209657	-4.400581490696925	11.100116877848281	-1.6046490195128384	-0.24799384893833326	0.38473150017992575	-1.2279411491855088	0.13487136619741646	-0.44977583684084493
erpnext/agriculture/doctype/soil_analysis_criteria/soil_analysis_criteria.json.utf8	14.931138797698718	-31.82888286968321	10.409098893551159	-12.185703099975601	-3.2376216997623417	2.2209448122763296	1.4654798627612189	-2.406688790194639	-3.3357958199775513	2.982569292015786	-1.447697305911071	0.44355276137886634	-0.9380249987045287	2.7976585012837614	-2.8363864864872523	-1.5249564123780233	0.021360052143443727	-0.426449746807078	0.4368084345246746	-0.4631504621704798
erpnext/agriculture/doctype/soil_analysis_criteria/soil_analysis_criteria.py.utf8	5.084506224394228	2.867184465229873	1.8624450738885612	0.100204659876922	-1.0571345571115933	-0.11312175514573522	0.03576131335619147	-0.6833821837194983	0.2166767467598822	-0.09393998666131476	-0.10856919039373553	0.010560002726071712	-0.12855828877813166	0.22212219858834453	0.02086974179498574	0.15274000931134796	0.10469493781331102	0.020362849569831455	-0.07190242762083418	-0.025073004565507477
erpnext/agriculture/doctype/weather/weather.py.utf8	5.910663143043363	2.312848966244624	1.151982466690264	1.2250942710007124	-0.8262642940349869	0.7132399755303495	-0.1917145645476851	-1.2976948557387422	-1.3391179350634859	0.098142446694798	0.03587310426501305	0.2785210529222183	0.04402065626274739	0.016185711857576786	-0.36637226276526275	0.9607062917630138	0.011811076502740972	0.3304613251205982	0.030824039768370573	-0.4740656370514944
erpnext/agriculture/doctype/weather/weather.js.utf8	1.9706506207803076	0.9269375649945759	0.3058197948747425	0.6515411347188859	-1.6540383288172802	0.005508490674347319	-0.5375409901019018	0.44921032196172306	-0.19439882283457988	1.5255203212951205	-0.3305898275653488	-0.1334226999425474	0.008542504246463722	-0.4477900902657302	0.07208115791333881	0.645642286360786	0.16911655545281284	-0.16314625963427037	-0.16526351473196418	0.04486927691984107
erpnext/agriculture/doctype/weather/weather.json.utf8	24.87967748546685	-52.916375400889734	18.065041720637183	-18.842419763854508	-4.143313963364993	2.1315260360095896	1.7350821938828263	-2.0768991984285248	-4.133492046209018	3.365145015920285	-1.5792567951703858	-0.2968323185843213	-1.7622703387979086	4.292298033385253	-1.3565256549783045	0.7069479316974522	0.7925276927584566	-0.6651035708849847	-0.6137660685483994	-1.099843295324395
erpnext/agriculture/doctype/weather/test_weather.js.utf8	3.0804702199900382	-0.3891849120776009	-7.294573977097177	-3.7684505536920745	-1.2940711578046507	-0.6380881277037557	-0.499852848232324	-1.8206193188895567	0.4443662661899744	0.05260761113132399	-0.3557108951075363	-0.009174554352425935	0.1290369072068627	0.26573265486361636	-0.3399201119564939	0.4663822617657234	0.21920608784324347	-0.27224557493753465	0.0028453081513330238	-0.15122635609285967
erpnext/agriculture/doctype/weather/test_weather.py.utf8	3.8758845592704656	2.0248123670534257	-0.0700392830946707	-1.2097832497110568	0.5518369773976641	-0.041639809439886	0.07034436077174182	1.8925277426575466	-0.3380825300932128	0.2488876838119008	-0.14395450332395077	-0.10013646219169595	-0.22939911096844795	0.024027423358367488	-0.08264363681883787	0.16880489734139803	0.09022729394398435	-0.16380679527795092	-0.2711264462664506	-0.1780488842340113
erpnext/agriculture/doctype/linked_plant_analysis/linked_plant_analysis.json.utf8	6.169651625135882	-11.731538745081332	4.109658296614264	-3.9257751151988103	-0.96048397775253	-0.20667704821332838	0.5230079855123386	-0.541510005941468	-0.6881338914531023	0.06674626835224376	-0.04381778444809786	0.11131464401567448	0.42134398588581407	-0.7339920277970823	-2.1091863192830402	-1.054191223922752	0.07603550412900054	-0.23140996488420681	0.011446941608073642	-0.3795919181866024
erpnext/agriculture/doctype/linked_plant_analysis/linked_plant_analysis.py.utf8	5.111614096447797	2.8041792628265703	1.8501870256979809	0.18292693514438815	-1.016715645907738	-0.11479414786531408	-0.044597475128565454	-0.6347756507065571	0.3658327360511287	-0.15481292870134222	-0.10598380817253891	-0.027845006818422127	-0.14902506855568767	0.24341940799617495	-0.0012071008758102256	0.20520075766299273	0.14011430652651774	0.009076180875401997	-0.1458299347101851	-0.06719514405359403
erpnext/agriculture/doctype/linked_soil_texture/linked_soil_texture.json.utf8	6.139343082241153	-11.723278161136422	4.1228682252044475	-3.9370151355578473	-0.9568121662777931	-0.13080094901621736	0.5116736142800056	-0.5597554694824466	-0.6945234582228987	0.05199307065837469	-0.04948167032978451	0.06219664594979851	0.4305670172673171	-0.8108670228932667	-1.9883345925773879	-1.0445591376060148	0.08358804458165538	-0.16214425370509686	0.05143737428154112	-0.460214735030022
erpnext/agriculture/doctype/linked_soil_texture/linked_soil_texture.py.utf8	5.104036960724115	2.8062444088127982	1.8534895078455265	0.180116930054629	-1.0157976930390538	-0.09582512306603633	-0.04743106793664872	-0.6393370165918018	0.3642353443586795	-0.1585012281248095	-0.10739977964296059	-0.04012450633489108	-0.1467193107103119	0.22420065922212884	0.029005830800602983	0.20760877924217708	0.14200244163968143	0.026392608670179486	-0.13583232654181823	-0.08735084826444899
erpnext/agriculture/doctype/crop_cycle/crop_cycle.py.utf8	19.20588520388924	-1.7402575850825537	-7.088354061995101	16.608924040127906	6.195652222910883	11.118096755132255	-1.9108877689166093	-8.1573770001816	-26.557426168325648	-4.959497647855463	6.641224680328609	3.1065529683704285	0.47082730152925706	2.1838749410293787	-8.071580329989196	18.203729167509064	3.524058844326004	-1.3589510412204941	-7.871556407345149	-9.893087436661524
erpnext/agriculture/doctype/crop_cycle/crop_cycle.js.utf8	4.2173205125928925	-0.17233026639063795	-2.1540973762878215	1.2999972035168916	-1.8276409769307245	0.2695356337627341	-1.3519061136878756	0.5739891143535912	-0.36326281785087644	3.0102709520680717	-0.8731146036456602	0.1890328384176572	-0.21488850142431992	-0.5826757113350451	-1.143560363377016	0.21769859533303573	-0.5844990560800556	0.9850951391561454	0.7836836004809915	-1.482271286614909
erpnext/agriculture/doctype/crop_cycle/test_records.json.utf8	0.25259602872536696	-0.2568978119745869	-0.18740095353464623	0.4883705825301253	0.12550733154110838	0.13963193521168094	-0.519321825497715	0.07654511805293084	0.10204089350393554	-0.1216674834989076	0.283725250527138	0.1542653451465703	-0.3043736128796322	0.5405328638596634	-0.40603618474338304	0.31099677229369493	0.31438935513455607	-0.14883006481359703	-0.5896354622561821	-0.2807197245341869
erpnext/agriculture/doctype/crop_cycle/test_crop_cycle.py.utf8	10.743701509522195	-1.5470667209170925	-6.82254211659271	6.974610919611939	2.787442871775108	3.294939597973553	-7.406748228064095	1.4240958418850995	-4.13238668409905	-0.9555551979388122	4.515138009888418	2.2283180465937686	-5.401300527376362	9.518323494465681	-6.4452716844087865	7.411201373720617	4.755579992201541	-0.2588510894677323	-9.185457434190605	-8.48456179380687
erpnext/agriculture/doctype/crop_cycle/test_crop_cycle.js.utf8	3.24574935778705	-0.5453607444175675	-7.13274322428853	-2.831396487195344	-0.9985940550428887	-0.5948909815279153	-0.983718826127653	-1.2417097702589845	0.45770013937303144	-0.1503433984530444	0.05130774799438678	0.2701902252755518	-0.17887146649538185	0.7383785806592303	-0.817942470663302	0.6522422145213562	0.5226634083094576	-0.21696939065891258	-0.6001231219619618	-0.27094066182724524
erpnext/agriculture/doctype/crop_cycle/crop_cycle.json.utf8	76.66522809513498	-171.90626068400638	57.41605282788237	-61.669310401335515	-15.600427769815532	15.575842696078897	3.348654672116727	-6.651731464648941	-11.53996490353731	14.39416812820832	-7.946754077645172	0.5401054141290086	-8.988487602586712	22.45289317020455	-1.6025178238749471	3.4582677325815707	1.9466087813634518	-2.946336415333669	-1.6907957192874394	-2.392704681014852
erpnext/agriculture/doctype/plant_analysis_criteria/plant_analysis_criteria.json.utf8	14.92880003107842	-31.82852109667892	10.408498756412053	-12.184099460359278	-3.2357080056531955	2.2201934411428264	1.4644856293533322	-2.403681773177396	-3.331889822805062	2.983600675000592	-1.4497919824617242	0.4422314919085606	-0.9379890711815911	2.796434266031544	-2.8353211501989914	-1.5301426852607687	0.02062912381921734	-0.42521870830935166	0.4373793396796249	-0.4637362787473152
erpnext/agriculture/doctype/plant_analysis_criteria/plant_analysis_criteria.py.utf8	5.08216745777393	2.867546238234166	1.8618449367494556	0.10180829949324481	-1.0552208630024476	-0.11387312627923854	0.03476707994830468	-0.6803751667022553	0.22058274393237115	-0.0929086036765091	-0.11066386694438887	0.009238733255765946	-0.12852236125519406	0.22089796333612705	0.021935078083247017	0.14755373642860248	0.10396400948908462	0.021593888067557777	-0.0713315224658839	-0.025658821142342934
erpnext/agriculture/doctype/soil_analysis/soil_analysis.js.utf8	2.2472204681066303	0.5896727767557874	0.3071772918726339	0.5372771020122629	-1.849373290797323	0.09276805953927643	-0.6546037759038023	0.38104316622368156	-0.28856701912360155	2.0126416933198583	-0.42135353683660093	-0.005754543028313419	0.052018142591852466	-0.4959452182445605	0.14800900437602685	0.6982421448939219	0.16240836387792593	-0.25825454436213985	-0.12396946133446121	0.1191260432844059
erpnext/agriculture/doctype/soil_analysis/soil_analysis.py.utf8	5.959077164978156	2.29647949455585	1.152076472186471	1.2087403343546221	-0.852862727721001	0.6674623087009031	-0.17255116896423678	-1.3179508309288863	-1.3753717096695763	0.10782887600715176	0.05434828900237298	0.37142436229305226	0.03874019562999894	0.10724838050374205	-0.43064146484802374	0.964569807254124	0.00043523203296645186	0.26499500107467466	0.0016888205044046792	-0.404623899421386
erpnext/agriculture/doctype/soil_analysis/test_soil_analysis.py.utf8	3.8910672259806156	2.020285132267813	-0.06993890961950669	-1.2118533693154248	0.5451370165895797	-0.059494737400951896	0.07631307177673023	1.8878632229910435	-0.34505949523687307	0.2473090403559563	-0.13952555480018913	-0.08417131360520022	-0.2325176455436589	0.04790382751863205	-0.11687475170380533	0.17454822765743894	0.0908158898883832	-0.18727217449219233	-0.2820359393942214	-0.15679498668097608
erpnext/agriculture/doctype/soil_analysis/test_soil_analysis.js.utf8	3.126018220120491	-0.4027666164344384	-7.294272856671685	-3.774660912505178	-1.314171040228904	-0.6916529115869533	-0.48194671521735877	-1.8346128778890658	0.4234353707589937	0.04787168076349034	-0.3424240495362514	0.038720891407061246	0.11968130348122985	0.33736186734441	-0.44261345661139634	0.483612252713846	0.22097187567644	-0.34264171258025894	-0.029883171231979488	-0.08746466343375409
erpnext/agriculture/doctype/soil_analysis/soil_analysis.json.utf8	49.720127304243775	-109.83926773052613	37.09451324722689	-43.30925330214527	-10.630726176720335	8.759272183226422	5.44117608679165	-4.703888541947649	-11.208612975859017	10.355339446456954	-6.0732666601167145	0.20618066004369348	-5.156665493426278	12.72521638772165	-1.6867517161892998	-0.5594700685632326	0.08459736429538235	-0.7242407215327259	0.6523180489206899	-0.8027071535891088
erpnext/demo/domains.py.utf8	1.8268893641622435	-0.3778187663132094	-0.5411475643037428	1.0595123269285853	1.7134921725873364	-0.20964608081718863	-1.2044141774489001	-0.15503177460768403	-0.013986408221836048	0.12874468188121002	-0.7034432547329443	0.33518767891045426	-0.6242365108510877	0.7187126705698513	-0.7489561974551441	-0.2516061950039976	-0.24581451717354683	-0.4961490128102684	0.35530518124401844	0.339243241613163
erpnext/demo/demo.py.utf8	12.45576315133077	-1.357126739159679	-3.799755758408348	7.417252019488152	2.6343652475725126	1.0959741025921743	-5.541737035609271	-0.5527832161007251	-1.5670995868825799	1.9061924469038685	1.1852887727469974	1.8861198807252424	-5.1379186372202605	7.1058301783672055	-3.7934795677233497	1.4853796000490158	3.1750999239029514	0.574266770699743	-3.861687922293428	-4.818306384871634
erpnext/demo/setup/education.py.utf8	30.30642471854426	-5.537256934739923	-14.58895194631658	18.32594304854158	5.969548743526626	7.045593910691238	-4.31183594246778	-1.000720199425868	-6.855794929760068	11.326273154999493	23.8219611070461	44.20793872222636	10.692511175976456	3.3740258644924115	17.810928085165227	-18.591353380575182	-8.16368590442094	3.6225565363683248	7.54864656862442	0.36873985797655756
erpnext/demo/setup/manufacture.py.utf8	19.53689919452151	-5.174423802966438	-9.882328332766072	16.42039345449167	10.16483874031377	14.956620825454582	17.758415968089757	-1.144588035689349	6.441026173171862	8.430182939896492	3.5918718869453072	-2.4794979324407667	0.49192590274987874	3.119360183197557	-0.5872282135253523	-7.9381379720978975	0.4667444772191236	-6.799754714641792	2.1150678402903456	0.6807840825944855
erpnext/demo/setup/setup_data.py.utf8	75.72739424331229	-46.18454780264457	-32.189424467884514	60.61088591294933	18.57610876785258	-25.80452609297042	-23.960753676718046	-5.839709321992207	-41.74033838674763	6.450705675384509	-11.412509933893144	-3.515089355900415	-39.507143384483996	14.930761190205681	-3.3875956192983403	-29.733690173792763	-0.14826161865552467	5.037495699198247	21.44996789640827	-17.75532533467705
erpnext/demo/setup/healthcare.py.utf8	32.24793755250972	-0.4164299994995216	-25.927790959554308	0.1500017413588068	3.9719372473948686	7.647280433211716	-1.4674612430212688	17.408923497972417	-6.430661542363224	-1.4985394186899477	9.62980098023112	8.156831160074123	-1.6174527168710748	-2.9620124164388377	-34.35856392288763	15.032002663861423	1.6715975517490862	17.034099251574677	47.27551892764771	10.127725427617749
erpnext/demo/setup/retail.py.utf8	11.610025599973453	-2.8046607644272923	-5.304240707315748	10.402841748379199	7.328306291355509	10.290555088858323	13.185319774616122	-0.6456633808952084	5.588497199720137	6.369759578754236	2.419230537839816	-2.7029455840846004	0.6942693435718575	2.44803397840211	1.62322098392317	-4.144499664742587	-0.011674027808903241	-2.442584607008177	2.7785338082773263	2.1451276884840045
erpnext/demo/user/stock.py.utf8	24.349061205265897	-6.277123720025296	-10.585777227556795	17.710039627090847	7.897859730028032	5.038211180814902	14.404511966245794	-2.704875447353235	-0.7638618095421099	9.527830539312419	-1.2899833960499316	-1.3213114200354594	-3.3989974312376794	3.215475001538948	-1.1030485219922306	-3.994571467852664	3.12421626259093	-0.8696204284742348	1.4823099140936467	-7.391265087088557
erpnext/demo/user/projects.py.utf8	11.117053935476957	-0.5025650038235719	-4.033253622948752	6.037247852610824	2.2656239389394566	1.1769152751874894	-4.567255276641529	-0.16109255789015758	-2.9069674913318932	2.482709335395341	2.170348993794506	-0.3885708012010487	-4.192937952754309	5.341980903184839	-3.8061214669895667	2.452653916967526	-0.6055174011658939	1.6622352588117006	-2.3955865973415484	-8.46678694645238
erpnext/demo/user/accounts.py.utf8	25.585588502159524	-6.325826720210421	-10.278860430733763	19.159883947343076	7.709322405930127	-0.07648451280343405	-2.462233254371403	-2.369914055501191	-7.896372332098383	0.6105782505258478	-13.798969935485822	3.871879519298861	-8.90400939209081	2.106911005565326	-2.099405569261682	-4.305873021275284	1.8037962911605525	15.765275126575904	-3.4112308200308985	-10.957116210749637
erpnext/demo/user/education.py.utf8	22.085860593865306	-5.073815748069549	-11.080350188347408	14.533208581894227	2.110126092846178	3.0682493068037293	-12.995115057403293	0.29438364132814926	-10.272616305869557	10.049800170065721	30.286174670196345	55.877801049063706	10.453740312832053	5.583117806981943	23.451492160263797	-16.47317348412498	-4.720020142974137	3.802422978510526	0.315796006493876	-9.635008566320685
erpnext/demo/user/purchase.py.utf8	36.39703379957012	-10.087019900883224	-21.277479101689405	36.63579153712513	14.368711495348442	20.307363254718584	29.10702892021263	-0.8937177920844674	7.272327890292638	14.851609397508403	-1.2949324098604411	-3.995378188161507	-5.9969787786438244	9.481744260238129	2.4760661775277626	-11.949335246612415	1.1563193481391978	5.529929629496745	-2.96676181576878	-9.172892643931833
erpnext/demo/user/manufacturing.py.utf8	24.40735828682557	-5.947163966246036	-11.0148913482368	16.77956362683565	6.778224132274371	5.898777470302764	6.739773405158308	-0.5375516125794662	-0.7657700276820227	8.073673800575754	5.815773637207787	-0.8820952427052575	-1.001657490267142	5.336339612861065	-11.653962216504187	-1.7737284085656884	0.046467321307339673	-3.1587386873432854	1.281625753862878	-14.178908189622435
erpnext/demo/user/hr.py.utf8	35.4961508634935	-13.73055675246038	-18.75702448769478	29.824318669806498	9.322964990868451	3.68692505680545	-27.30813565948975	-2.6728416445663794	-25.004280290684154	-1.889055784965089	14.796382442271232	-18.48070025012805	-21.31545541563357	9.357833139665807	1.8274730576103586	-25.882869866514177	9.860511570092996	6.869424864776518	4.638128975044724	-6.406043598687889
erpnext/demo/user/sales.py.utf8	23.825182324059845	-5.346361969333755	-10.548839401737157	19.07747560885645	6.37542980007829	7.605411277482335	0.7875464696414806	-1.0553482250193145	-3.7291093504795287	3.42877816050926	-8.15827567336409	2.131226839570952	-6.620764582957838	3.2557039622987336	-3.780884824163235	-5.809029918809604	-0.8185093762727718	12.248812519050718	-1.4330627809331182	-9.993975992013768
erpnext/demo/user/fixed_asset.py.utf8	9.26828474839641	-0.7560118324274939	-2.4614756758625296	4.718738104939686	2.1586434378633514	1.0880872955275303	-0.06699954790581474	-1.0982687128568316	-2.3449751478065384	1.4341133605042784	-4.475849630192405	1.1577930878717377	-2.0053830298245883	0.25595434375798837	-2.7190555570186037	-3.6019487704824913	1.735229177707845	-4.394331456238476	-0.503369255347645	-2.8282975918197724
erpnext/demo/data/department.json.utf8	0.7957306133176222	-0.44019487398231144	-0.4460766164396953	0.5607844328663742	-0.12036447688733133	-0.5177266939824263	-0.9301463002415793	-0.010862160637230453	-0.2428741576345424	0.020586138474065274	1.4292515983453138	-0.6377086313053358	-0.37154739087186295	-0.1730159104824476	-0.5794115584242179	-0.022935854732869503	-0.31725216789089133	-0.22628864846545196	1.1694669098650485	0.4144424421633313
erpnext/demo/data/contact.json.utf8	10.280299542135218	-14.186989762618516	-5.74070788144638	10.469676026924995	4.037266673945024	-2.5417588238364726	-7.262546105161702	1.3339453296963872	8.198684528257107	-4.851218587507357	5.019965722536838	3.910203714994015	-0.10900715595306601	-1.757116206104256	-5.9008305914923405	5.752718746801252	-3.5010922883075613	5.917906589740465	-4.535424271714004	-1.0957114147594773
erpnext/demo/data/program.json.utf8	1.9552203385880134	-0.12677247376597892	-0.5397326509843489	0.6695690404211753	-0.8611099592419854	-0.6732695167772331	-1.0198022293506792	0.10173267933360224	-0.7948040891454341	0.9230280980146015	4.189258687671684	6.971738402797044	2.505048414667692	-1.1650803991957506	3.3431211042989037	-1.5590961931787686	-1.2532180408574758	-0.9868777468997871	0.45969872801150674	-0.24853680666233063
erpnext/demo/data/operation.json.utf8	1.5814863041596672	-0.41968300090507865	-2.4043288383750694	-0.7453661024403754	0.14856766102139324	-0.6544895559468196	0.8109898271352929	1.708904339511585	-0.17080233572627623	-0.3607988904936239	0.45191710431469595	-0.03270796995843877	0.07046202257891242	-0.4211171891808966	-0.37904907116080594	0.1324149894829137	-0.19021662314212695	-0.017809509206897715	0.02236332857565935	-0.060300230342155745
erpnext/demo/data/course.json.utf8	9.191574602227531	0.6869386796691905	-1.3226956453725307	3.016267731095426	-4.170669891507637	-2.4825921341224646	-1.4667896653416395	1.9328985240952765	-1.8334649488755006	2.6639993748696185	12.35486894179464	16.621142636293822	5.997745227659046	-3.2475745276953045	8.95830262232237	-2.2649585838937747	-3.2450423562406088	-4.053866834265459	3.107127560034827	-0.13512835468653067
erpnext/demo/data/user.json.utf8	3.8983496133486657	-5.096404507540271	-2.69431655616791	0.34722519080690245	0.57937346111363	-2.4540004126866117	-0.12542809188871906	-0.5647157880715803	-2.0088474342131692	-1.0176017792915306	2.799005209818553	0.934400017016738	0.6883123702426397	-1.32135151382101	-2.6738036852586906	-0.3635544245976973	-2.1531218288410954	0.7840542978578199	-0.5380016740661845	-0.4115392468219147
erpnext/demo/data/lead.json.utf8	5.172319812084786	-5.675108833903447	-5.082116363778409	7.041525055899844	2.6521280810996046	-1.9284011850196725	-4.170229222847573	-0.624365605454797	-1.2736406065084385	-1.9826131800247284	-0.15251167616787892	1.4618802654602343	-1.7292060691586695	-0.6478308023992682	-4.365217839112308	0.4549443158180012	-3.342903082911606	2.6971774831339226	-1.274444695442845	-1.0172748786568242
erpnext/demo/data/student_batch_name.json.utf8	0.36323886899476154	-0.385059368836875	-0.3095912030854392	0.3237040287535623	0.10227898169606334	-0.08044984887985415	-0.11153225708849393	-0.002726329085364923	0.2005242064993659	-0.05593413606814568	0.8938208477966078	1.2519000813527712	0.5092511121973627	-0.3252755099970476	0.9440845330174152	-0.21216853415411718	0.007130103716305597	-0.21752308744961885	-0.10901380599787945	-0.23489877576716817
erpnext/demo/data/random_student_data.json.utf8	36.607032343015334	-59.06375483053845	-15.823178258257538	4.169818315395852	3.889560949891758	-17.566251260928716	4.283150676303569	-20.973226242656814	-19.435013918288956	0.575966781625918	25.78920048128752	17.826967846287097	8.614485896505077	0.673716948615547	-30.826938029166236	-14.818560929366672	-23.598021880185573	-2.7428060570409363	3.012939672692466	8.912710203848906
erpnext/demo/data/asset.json.utf8	4.237364114377812	-2.381876864367036	-2.9935233540138717	6.010262135636292	1.8150737842865239	1.5585776432845047	1.9904317457819185	0.429604704559434	1.446999388459769	-0.5459119598304879	-0.6396316064197397	-0.28002929163036777	-0.9027732773075046	2.2239701207781732	-1.7732219306363177	-2.640527284238092	0.5034578022911078	-4.225863575215314	-2.192556882993533	0.3195606312942949
erpnext/demo/data/room.json.utf8	2.243534694415154	-1.347910567341723	-2.9725339681245657	-0.12239552993373702	-0.6193570428913979	-1.3175971897664178	-0.12372076568140213	-2.2955397827990485	-0.3583450629982628	0.5388732933728424	0.04821281231623907	1.3234932981780188	1.1046151296000144	-0.27430843397549765	-1.0096511287737142	0.8198329077870868	0.7841980169569497	-2.7749680261413907	0.7662537086542486	1.9597794306732872
erpnext/demo/data/instructor.json.utf8	5.184867800268321	-1.2553295332768053	-1.6966280499024176	2.803840451431503	-2.049148039104878	-2.2036134722871847	-2.557628156148397	-0.9299372224513726	-1.1468725414905963	1.1040313271278808	4.383781664478435	1.149092378565248	0.47390671768537584	-2.0880027054051498	-0.5985409626792956	0.9295368261627027	-1.3772973678923597	-0.9628746971806749	1.6613947836471161	1.0755395890329809
erpnext/demo/data/item.json.utf8	41.122080164794625	-22.462216997530636	-36.427509667749256	63.15090941896802	23.998869054010974	55.40369220202782	88.27185560497605	2.4100495645005426	48.67378295970562	31.10139003812996	19.4420652395408	-8.470250968016321	4.698776373211373	15.157189292575541	7.76305652651795	-28.162723851910012	1.6742436193548356	-31.82632736944729	7.3393408053736655	21.362184323430398
erpnext/demo/data/asset_category.json.utf8	1.8952749443983643	-1.708676880771898	-2.0780627312468916	3.1950796659089002	1.1293218774685625	-2.1965949370615747	-2.237773883783377	-0.7280798986622508	-2.3831299683015645	-2.6372596862111313	-7.315370462679481	1.7047512656657564	-1.9729484660642533	-1.5610610920799457	1.0014570804088334	-4.39129391912067	2.503306759899178	-5.858319861871619	2.818032892461321	-0.7293150668633236
erpnext/demo/data/bom.json.utf8	10.59709274375266	-2.505487216570479	-8.631484071901609	11.658739526774852	4.516750854076865	14.833763985271238	24.460735767196805	3.161520169816463	9.636259915352472	4.30815520940439	5.10607561329526	-6.203011793006378	3.8134955629326868	0.6891967743839735	5.3156610228866565	-5.208258320232396	-0.2937413199537168	-7.9348045648737955	3.8354523970314873	2.6674690606675826
erpnext/demo/data/item_education.json.utf8	14.630817716583136	-7.925329013734543	-13.50559373360241	24.327725389693708	9.103962337700088	19.898785163724433	28.5094068116179	1.644725065006134	17.687895816037706	11.222760210834268	5.2924336444180335	-2.6192813920062927	-0.43871167059214766	9.096643873451326	1.9268546057831766	-9.743732270263559	0.6258600303338283	-11.149178675433346	2.3380472579160902	8.044593896738824
erpnext/demo/data/practitioner.json.utf8	0.2545154267123422	-0.25944516731257905	-0.2536040925210676	0.19344116538872513	0.06814283547684986	-0.17573768302490544	-0.2255837708495122	-0.02025576404906995	-0.0673578324102285	-0.13368668031770134	0.5221560832704976	0.003231928364343009	0.03324995379085155	-0.3102711781904168	-0.7742213086559581	0.22388327438413985	-0.07071032641688534	0.16762216265911306	0.9076920700611939	0.30373276445643804
erpnext/demo/data/patient.json.utf8	0.4923790254497779	-0.49639085565047086	-0.42642598770267426	0.30905022882224265	0.09524428159662968	-0.3109638334758087	-0.1453420798561523	-0.12774932377237797	-0.10006299783992093	-0.22108927761905303	0.6936023813029167	0.5958716605006698	0.3136217251586829	-0.4941880566869022	-1.7901434747119764	0.883816387676487	-0.08537746914482425	0.7007018472473456	2.7612786815239243	0.909574026530449
erpnext/demo/data/drug_list.json.utf8	287.2478273650615	-197.7568569694071	-248.2935782735811	422.10342266644943	158.77615547685576	214.26526102023345	463.1133769795765	-19.153379313676147	202.84876079438774	134.6099962983061	-9.893365476408203	-45.218828004769414	18.510575259767876	-21.188244726293146	5.319914986837934	-205.02646136585972	-18.051086261750307	-130.1066075588565	46.07678994076576	117.452578219612
erpnext/demo/data/account.json.utf8	1.5732312242376063	-1.5443564152923115	-1.3238544663505203	3.0114970234710814	1.1943046420726395	-1.966211127440861	-1.8025703599152805	-0.0885655284816038	-2.5460949880972765	-2.9173936109175553	-7.61902993497916	1.4455954522977787	-1.7029630930706794	-2.2927684378336375	2.3304243010108308	-4.117657472045995	2.921239875538192	-4.019957141493799	4.017003054494058	-1.091796531163084
erpnext/demo/data/address.json.utf8	9.216122719375024	-10.58471352471277	-7.658861157847098	11.05645236883745	3.756763173894644	-1.108320026642371	-9.463513745600045	1.4741238807348187	10.526270044011987	-5.0019120414614235	-2.6611338568330813	4.534252976304802	-1.6370127620350658	-1.8825133756052244	-3.7705141866508467	8.339619651467045	-3.0773845801524438	14.127366838813948	-6.565971098518335	4.404248348370864
erpnext/demo/data/grading_scale.json.utf8	1.6937783894166982	-0.0403541885842427	-0.219114571159697	0.28424153055454676	-0.3610607809021363	0.12935296151738895	0.8728568024567289	0.8957340478709149	0.36376858048955724	-0.7214304780628175	1.0758773976547504	0.1165378530340578	0.30791895272888437	-0.32160533678471437	0.36875759870023	-0.10197905583743813	-0.3676267781451387	-0.5507136950112401	0.9101658525101874	0.2707625880142654
erpnext/demo/data/employee.json.utf8	4.386053669238846	-5.215412053269502	-2.9529890262997918	4.818713816411859	1.3357660015834294	-1.9815609283726487	-5.550299853203539	-0.7475302517169777	-3.2144556975544725	-0.8220787043661005	6.873870162211758	-2.2410869313381614	-4.75752641738125	5.319815139978298	-2.1032504389386664	0.6175547390918896	-2.8948623712186636	-1.152304587040757	-3.0190442020089483	-2.2157885440378826
erpnext/demo/data/assessment_criteria.json.utf8	0.35871282243803965	-0.046939724042597206	-0.038710821738862845	0.050809420116394576	-0.19690911125369967	-0.08506837706114782	-0.26281517084883715	0.28758568164882087	-0.06344284316929658	0.43704094308061886	1.1416947181039698	2.088373181482257	0.7154496428153985	-0.2934658725334144	0.684743350626798	0.3025314683670147	-0.36943910412222447	0.29527002816273656	2.5430866577244147	0.9341314604897619
erpnext/demo/data/location.json.utf8	0.2321476682449547	-0.23955289739196736	-0.2387485547118696	0.1783826170115199	0.06332438957019162	-0.12852939482579956	0.04008395205939767	-0.17365544956246948	-0.0741685831847607	-0.041320251769604764	0.1305327928839059	0.07394128468363277	0.015730157396021523	-0.052159467953014245	-0.26045143112538244	-0.0984465734084926	-0.07579675626536879	-0.32555277156814183	0.040232056014577716	-0.16071512936748283
erpnext/restaurant/doctype/restaurant/test_restaurant.js.utf8	9.506208711089357	-0.6236065079818933	-17.1136377069101	-6.518176150330212	-1.3277881582561586	-0.15830601559401458	-0.7362348230830513	5.468072150112386	-0.6709712302328363	-0.9257317543810649	-2.227166165808561	0.863953575635083	-2.1112023476919526	1.1508555882389548	-2.392627588850481	-0.4962596197119514	-1.2937082700423372	2.808738123928628	-1.4432325675158235	0.3030537764852536
erpnext/restaurant/doctype/restaurant/test_restaurant.py.utf8	6.959147172239493	1.8390827261692322	-5.155050867810183	-2.8993913689474597	0.7753770005725997	0.08335898782109888	0.09871983054959461	6.358085818124236	-0.9600275110951967	-0.7257834287330083	-0.9941257551240303	0.40004234313882603	-1.3745472657958346	0.5372401881355002	-1.215236746724498	-0.10337225353409518	-0.393030434815994	0.8104093049252116	-0.9863710362360203	0.40890488906188943
erpnext/restaurant/doctype/restaurant/restaurant_dashboard.py.utf8	2.0787951631735826	0.10394726820995495	-0.11142970231211237	0.8705996242086417	2.1008837632387096	0.9043874540043757	0.5132234367980355	-0.13816812424548394	0.833599092473815	0.601405579765276	0.14646615534719484	-0.06938260953078718	-0.08212234178832842	0.12633351812977184	0.10482026878736289	-0.00593520689930197	-0.020386733110497594	0.5480016382682416	0.23608148541099264	0.011192249540870981
erpnext/restaurant/doctype/restaurant/restaurant.js.utf8	2.5510839277766078	0.6890969406523547	0.049054138715337106	1.1111941604501014	-1.9316441996111036	-0.022588743901163954	-0.8043943349802836	0.43593136439698765	-0.32034541683111223	2.6513055429431907	-0.6750665309695693	-0.26121146325682615	0.09759477474123515	-1.0656827501446728	-0.1443795812178642	0.5955881730006882	0.2289157435460848	0.020142910945832204	-0.38309099573530175	-0.06865115206449615
erpnext/restaurant/doctype/restaurant/restaurant.py.utf8	5.061886471563838	2.871662132103533	1.8567479826800701	0.10812849502403762	-1.040347659914641	-0.08988803373386431	0.0435939450312936	-0.6783384233548314	0.23320348795731843	-0.09094682027446321	-0.140479763176224	-0.06089189155450809	-0.14293533264279282	0.20053921319728787	0.04270745618577492	0.12759911776151744	0.11243430049997867	0.05409315039640137	-0.11389630328808145	-0.06513272617452712
erpnext/restaurant/doctype/restaurant/restaurant.json.utf8	25.83337736993017	-54.886925538098694	17.320648952797324	-17.95092742688717	-4.236998090854369	3.2924320438428625	0.8549928409407559	-1.9814499380695283	-3.091706164352664	4.3318202012232305	-3.53010737206134	0.5605340329377301	-3.520758796953528	6.787140436536096	-1.5634823274840068	0.7718053507708267	-1.8723153572683118	1.686164531336545	-0.8076752370545657	2.4089386570523406
erpnext/restaurant/doctype/restaurant_reservation/restaurant_reservation_calendar.js.utf8	1.3393432977020918	-1.0313063171517052	-0.6165118286867197	1.2181683900092255	0.21342965661948923	0.4328229589665094	-0.5850390421177484	-0.05600260393622075	-0.1434207490094871	0.21812215612686547	0.30175259869246523	0.3658598906405565	-0.2528033258302853	0.3442826508071226	-0.9988765299397584	0.12985341031875647	-0.3274331755747552	0.762063218985664	-0.06939044606581743	-0.5887904120939604
erpnext/restaurant/doctype/restaurant_reservation/test_restaurant_reservation.js.utf8	3.875565467514704	-0.31441575801354876	-7.697097768000568	-3.0993470208688665	-1.2561247108641482	-0.41533993281008974	-0.650608535823725	-0.8168785849528708	0.20808817799460658	0.0792731942671327	-0.07263960164425896	0.1643241872097443	-0.20755576712115853	0.6814213178507817	-0.7922379267639239	0.6653154114211225	0.18630837714231618	0.16413812256094917	-0.6407951435400543	-0.32352946458832654
erpnext/restaurant/doctype/restaurant_reservation/test_restaurant_reservation.py.utf8	3.8898590518558467	2.019112642403409	-0.08161058354255189	-1.2016487249686052	0.550735876850803	-0.022223778713815295	0.09962116241770543	1.8919406177929634	-0.3358299079614298	0.2721533115347327	-0.14189281531720319	-0.10724089567951386	-0.2243583040766149	0.018346418448114916	-0.07484079024901368	0.17353822998090002	0.0915191977739309	-0.1741512858463901	-0.27008955944959234	-0.17370920818693147
erpnext/restaurant/doctype/restaurant_reservation/restaurant_reservation.js.utf8	2.3181994704632616	0.671806799679004	-0.026549138921497097	1.0509649932523804	-1.806962680150401	-0.13501417568538773	-0.9228996980749129	0.39080986749935054	-0.262382408212321	2.582812033379152	-0.6716834874261778	-0.13647805036430516	0.02805161057872891	-0.7192811809263197	-0.011011804548408832	0.7388523429762167	-0.10744309328006119	0.2944154957072456	-0.3229052326151436	0.20804257106333782
erpnext/restaurant/doctype/restaurant_reservation/restaurant_reservation.json.utf8	29.439438032469024	-64.27449075241621	21.5157965124433	-23.609991785135836	-5.863849934316957	4.804735846116432	2.6693045384385727	-3.40815032087407	-6.367564099888879	6.249441159688089	-3.194648010753397	0.5111314183618626	-2.6958399688131904	7.236905483840789	-3.4080669814469013	-0.8282523048886179	-0.5483167240099395	0.5878538162673824	-0.06452179433256744	-1.3384664639915058
erpnext/restaurant/doctype/restaurant_reservation/restaurant_reservation.py.utf8	6.279334187465846	2.8899978938167665	1.3896804422802806	1.2790166035884343	0.09083392439599021	1.2115958641231657	0.2148350442369776	-1.5168158471342783	-2.7194733750914515	-0.7750881971586016	0.5292889928543816	0.2905935536203333	0.3817135995707334	0.25923923939909754	-0.5101864554319592	2.080463663158	0.34016242723365364	-0.5245678427001078	-0.6931212871694666	0.019217134015333783
erpnext/restaurant/doctype/restaurant_order_entry/restaurant_order_entry.json.utf8	23.838965541822315	-49.363679067646736	14.871289252790675	-14.548260377328884	-2.9203062255867174	3.684936361212846	5.029307539255852	-1.979978796293783	-1.482775929112633	4.6690426721868254	-1.700344892867717	-0.6388051475601907	-1.6853827338748475	4.753438991877488	-0.4697472036950801	-0.07620540402516396	-0.7793704809371194	1.0192931430580194	0.032729021143883756	0.6604398586470066
erpnext/restaurant/doctype/restaurant_order_entry/restaurant_order_entry.js.utf8	17.756395129314047	-9.56674599524852	-14.070926014279927	22.63508600476112	4.833798741432866	15.341029013058815	16.66689441068193	-2.720893101191424	7.930587244586789	17.982748449054288	-2.3985460595838752	-3.9402336498860566	-0.07682431566881076	-2.13015982147782	1.3293414552850713	-7.656105093585326	-3.097073403325776	8.690639207866006	6.012444592534352	-4.977302901263819
erpnext/restaurant/doctype/restaurant_order_entry/restaurant_order_entry.py.utf8	20.30606517980513	-3.6934350692289826	-7.940419365686221	16.610952643037812	3.305344406026485	9.588039607933084	7.678782548498025	-3.0829118596236897	0.18239996643180045	5.877536703234626	-5.159132545361748	0.8632038538478928	-4.058663148235007	1.6374784712144983	-1.3463554952128545	-2.886887529590597	-4.030255367778473	13.475292940415049	1.1450328882540557	1.1407179521389395
erpnext/restaurant/doctype/restaurant_order_entry/test_restaurant_order_entry.js.utf8	10.033479172657017	-2.944764653959728	-15.94973781564119	1.0367782048808074	-0.6496731925775328	4.995577851621748	6.864223049833068	-5.088091177602594	4.004880022948363	6.76166753845067	0.6526546204604572	-2.129765365397049	0.5379320821586432	-0.04156355513515324	1.25192737152728	-3.4044491148896143	-0.832469910780561	1.908659838089727	1.9559100262192006	-1.8818156937399235
erpnext/restaurant/doctype/restaurant_table/test_restaurant_table.py.utf8	5.348086471994346	2.2355331039230633	-2.6310282159960603	-2.765286101843783	0.4458206154790699	0.0926405579827493	0.6140690788899515	4.381545522687778	-0.8622901406220004	-0.1025500991651239	-0.12489111504062536	-0.0537902631124896	-0.47545486783076757	-0.11851405843492888	-0.34598125745135083	0.036077994060494306	0.026988076487329652	0.02444898914992013	-0.31643724360484765	-0.030269494690850815
erpnext/restaurant/doctype/restaurant_table/test_restaurant_table.js.utf8	6.531760267996625	-0.0921825383347916	-11.47160258426692	-6.2006179130104115	-1.9230588991887183	-0.2489905492646435	0.27933152689158286	2.6515556448227344	-0.7222557175482032	-0.12665145736811773	-0.5133237447864131	-0.04732986866183201	-0.46184602176684203	0.03937989332501551	-0.9514034722229376	0.16180592414602998	-0.03835145745682202	0.054168169345539655	-0.18937790509583274	-0.211392604971619
erpnext/restaurant/doctype/restaurant_table/restaurant_table.js.utf8	2.0001064745415658	0.9575894485652594	0.29711363831045245	0.6994280773581406	-1.8326615907048065	-0.03198678522388398	-0.7569239612521365	0.4887286013493126	-0.1854733244093036	2.1138096543318996	-0.4855804986098962	-0.24903769019504074	0.08375628934634223	-0.5954348949432767	0.18747261042343957	0.7598485243551099	0.2415456562983676	-0.32970151644285095	-0.2637402247107791	0.2799785550547698
erpnext/restaurant/doctype/restaurant_table/restaurant_table.py.utf8	5.926283271570352	2.8584434091707576	1.4135443916262809	0.8070877870825184	-0.5734973157505517	0.659186128942937	0.28304317441612087	-1.6563333420368818	-1.7791257403576046	-0.6570645340964288	0.18853531082700167	0.12150642241096016	0.22086890511655213	-0.0030333178747426882	-0.022279529558375036	1.4778885970027167	0.24599398709260162	-0.14101596363681548	-0.44727312455665014	0.12707545700611503
erpnext/restaurant/doctype/restaurant_table/restaurant_table.json.utf8	11.83300323201986	-23.82683028751144	8.1303700102075	-8.233633767838038	-1.708888796947484	-0.4801479201115677	1.3584683473611177	-1.030650826840275	-1.7953147569217207	1.5560422536272822	-0.5098851423263875	-0.07138220095291388	-0.42052839945281656	1.2018484815527506	-1.6692126123667994	-0.33064848229874544	-0.16700930459654528	0.14737935511166644	-0.08421117228166433	-0.16304225802573252
erpnext/restaurant/doctype/restaurant_menu/restaurant_menu.py.utf8	13.977313297904862	-3.417192256942429	-5.236738661307542	11.35391433090124	3.197256161154719	12.59020500631976	11.004251574446771	-4.3704204468206305	-7.969839824619446	-0.8122767459899756	3.5164195423295914	-2.146002734505984	5.149306250469197	-2.7074737418551664	3.1529789471828598	5.328833303127209	0.9098548681901253	-0.5923312630271523	-0.49797442749345033	5.784420439335369
erpnext/restaurant/doctype/restaurant_menu/restaurant_menu.js.utf8	2.2191982392341445	0.7053700583022926	0.07386215218530587	1.0468129862771183	-1.54984067459315	0.22313158156012827	-0.018493692144814777	0.43506986882000187	0.059900158578823685	1.9933248515232256	-0.3514455375488288	-0.37939248869018094	0.10035790775604575	-0.46517164402720834	0.3957558992047534	0.49189460139283714	0.07460805507136035	-0.3088290858902943	-0.11033923610112206	0.3433604791346634
erpnext/restaurant/doctype/restaurant_menu/restaurant_menu.json.utf8	20.574700194216106	-42.75534758491772	13.429135456316649	-13.495180751685043	-2.821180865373446	3.361345110257305	4.058192224920313	-1.659849307564712	-1.1818038416147971	3.8509922649718407	-0.8213436148754776	-0.7091354042492403	-0.8403692609608822	3.7689205251445457	-0.36196136245506455	-0.056949385101975294	-0.15965582194904693	-0.5322737315661035	0.21633395497331057	0.8763864678577314
erpnext/restaurant/doctype/restaurant_menu/test_restaurant_menu.py.utf8	18.455650824136654	-2.638980728029737	-17.72721825333398	9.414705364884753	5.823721180136249	17.3586534417667	26.15213638638758	4.256729709648903	4.678346731940895	7.146934540861604	5.01373606308063	-4.967309339515284	2.979516509890286	0.32866139742498557	4.993722357710666	-4.700224437204127	-0.02056761240943587	-4.449974573648729	4.196848235705816	5.163835721712242
erpnext/restaurant/doctype/restaurant_menu/test_restaurant_menu.js.utf8	10.195624795995045	-1.9541374769703796	-14.362653095169314	3.71865961987278	1.6866385903476688	8.961990844140757	15.787513496697805	0.7722975231469928	6.034455576329303	6.142274677030358	2.8667439458617423	-3.2815644906318977	1.5855589445082852	0.32047018485758233	2.9851691022119313	-4.395145795949208	-0.21452577677995202	-2.8185150003054495	2.9525682334697003	2.3973326148991077
erpnext/restaurant/doctype/restaurant_order_entry_item/restaurant_order_entry_item.py.utf8	5.279677261438786	2.6914514423545017	1.6864571356276912	0.44961015420536354	-0.8819752192915693	0.2102406395826228	0.581700502892549	-0.7113281432359356	0.4359416225496336	0.061442162869582845	-0.06106619678331131	-0.18394242986322792	-0.06638893496351307	0.091299651939656	0.03791862876598698	-0.072227634008631	0.17190604100583193	-0.027606170821260538	-0.02938824188417507	-0.11321712769147739
erpnext/restaurant/doctype/restaurant_order_entry_item/restaurant_order_entry_item.json.utf8	13.868102547928826	-28.72600377054387	8.963937255341454	-9.210091709936208	-2.117291912555726	3.218766045316647	3.7006750229012697	-1.5533562346487282	-1.3898082870246269	3.058733625171161	-0.7875319234445952	-0.4209439370053569	-0.4973494977335768	2.617410011583867	-1.2606827120156283	-1.4625996249375606	-0.25130465824799675	-0.7745302492020019	0.45040371415413966	0.3491204292640925
erpnext/restaurant/doctype/restaurant_menu_item/restaurant_menu_item.py.utf8	5.196253297743582	2.7976996983039415	1.7110445523973763	0.359360212984703	-0.9258770371860837	0.20688626052981351	0.5324636927424856	-0.7022741709311247	0.4294213340532786	0.09661182026519141	-0.04015258300338598	-0.17259965025796306	-0.088956993836987	0.2185595256068355	0.14481941045972735	-0.005544635714433151	0.11046951146093842	-0.03100804975925841	-0.009881445023176262	0.006285298199048252
erpnext/restaurant/doctype/restaurant_menu_item/restaurant_menu_item.json.utf8	8.814326957162995	-16.972876460213435	5.031182189109426	-4.62022649454493	-0.9078727931899279	1.7069609473304732	2.638446687109045	-0.8453018178179913	-0.1492830519574171	1.406724612311521	-0.10377328862628904	-0.40657297095831246	0.2276997002134859	0.4195675206397246	-1.1718058566796756	-1.3870322917531184	-0.20522147223245252	-0.49464660978244024	0.40286830563555664	0.34340961726694713
erpnext/non_profit/workspace/non_profit/non_profit.json.utf8	14.686046164548424	-20.564809775239315	-3.6573552836454657	17.854541633480952	5.368215429839264	-14.576882065071189	-14.903526245331065	7.565639575966226	16.564639026512086	-3.4680200238684815	-0.31987517426614864	1.2377358473961049	5.088154380927263	7.498423539677006	-2.3555914646490854	6.851436218273324	3.765150828115137	2.0762957517560916	3.296956282981578	0.8498897188379815
erpnext/non_profit/web_form/grant_application/grant_application.json.utf8	5.414417878738749	-9.237914406563723	0.5734895236605491	0.7612659430181531	0.1851851079423431	0.5451278383793223	-2.7054615381166958	0.26842827648133105	2.364039977443764	-0.6924458430848962	0.747874969510092	-0.33511960495233395	2.119330688212922	-1.6495565326813664	-0.7175302316326145	0.16175080624994315	0.7796365403441389	0.9750078829591398	0.00038395919806419885	-0.3593408988880573
erpnext/non_profit/web_form/grant_application/grant_application.js.utf8	0.25815149708507007	0.04504519029987223	-0.11413083949640951	0.13545363231041183	-0.1913710937336272	0.025785810870769876	-0.21468078458857404	-0.03873923825531742	-0.0732754472966585	0.4345874971676694	-0.08671797828443001	-0.04079279439031438	0.010994378211199586	-0.06700156040530483	-0.01650561611443282	-0.009245038425837043	-0.07196672778196667	0.062052798537210394	0.08864661557286313	-0.1502156798025449
erpnext/non_profit/web_form/grant_application/grant_application.py.utf8	1.1988974062520894	-0.06784596138452909	0.3039832925486506	-0.04388079914643554	1.5268976904099694	0.3049028971206467	-0.4319295892021541	-0.1840397696284627	0.01980361860560672	0.15524961379134317	0.21151346684698846	0.20711764126860452	0.18640898250177756	-0.15175304510953497	-0.23424015704226717	0.05962949854123941	0.03619564766360781	0.2547413364266393	0.2633080215363974	-0.2857892618205286
erpnext/non_profit/web_form/certification_application_usd/certification_application_usd.json.utf8	4.164448197829457	-7.222123467598963	0.2776204492753847	1.0757928859884962	0.37999115108766796	0.15364368574094614	-2.367827173423104	0.21028821102327885	1.3763313799120833	-0.9324121430182557	-0.08194401763898829	-0.6380134133390387	2.007559321075554	-1.8251659509397347	0.06875922383333612	-0.531769382107958	0.16553560457577898	1.144822942323765	-0.4191486146322665	-0.6655936811476395
erpnext/non_profit/web_form/certification_application_usd/certification_application_usd.py.utf8	1.6098793215572011	0.8646888373423552	0.43911373465994563	-0.34170601645426874	1.4890801967528926	0.1532654466164237	-0.11474372093727861	-0.13095633795189923	-0.22124326380966125	0.14053456379162102	0.029839755713021155	0.12961558721812763	-0.07013530060049271	0.11751367302684239	-0.13542934993368302	-0.017510788318876765	-0.03834557684157841	0.20953216790573742	0.17043158392901334	-0.23637086262321227
erpnext/non_profit/web_form/certification_application_usd/certification_application_usd.js.utf8	2.6281629617177367	-1.3117669318190863	-0.4876299542308973	1.522364842275373	-0.3181717741302554	-0.7747815674045535	-0.48201342220450993	0.1944468690100223	-0.4174818831248198	0.689224273103559	0.3248550998235393	0.06212030809237893	-0.11476587828436992	-0.35647334474387726	-0.7177350238178897	-0.11497644104989674	-0.26439128518663824	0.8774059605515574	-0.04837391604223921	-1.0586145665434852
erpnext/non_profit/web_form/certification_application/certification_application.json.utf8	4.124976906751393	-7.171033181246042	0.31839972939434874	1.0031086675300875	0.34533273080445837	0.10831332492189691	-2.293536825364978	0.1911816936524883	1.3532591693251566	-0.8351166221295684	-0.00590693710228939	-0.5805378795161822	2.010010805469582	-1.7833635878846437	-0.05182761556009013	-0.5128242353298685	0.21329584343574337	1.1595154047233776	-0.3972776331695711	-0.6873442251775832
erpnext/non_profit/web_form/certification_application/certification_application.js.utf8	2.6253968542827684	-1.3102982505215037	-0.4794436949211509	1.5216390738866374	-0.3192989610942208	-0.7786783200528623	-0.4858437253660453	0.1938607153312828	-0.4168491204577636	0.6920446146542757	0.33075543467466534	0.06332630136149717	-0.11400733054369465	-0.35373489826128685	-0.7233777985115322	-0.10981313197971163	-0.26144184929010184	0.869305033476303	-0.04120398969495248	-1.0631776078702149
erpnext/non_profit/web_form/certification_application/certification_application.py.utf8	1.6098793215572011	0.8646888373423552	0.43911373465994563	-0.34170601645426874	1.4890801967528926	0.1532654466164237	-0.11474372093727861	-0.13095633795189923	-0.22124326380966125	0.14053456379162102	0.029839755713021155	0.12961558721812763	-0.07013530060049271	0.11751367302684239	-0.13542934993368302	-0.017510788318876765	-0.03834557684157841	0.20953216790573742	0.17043158392901334	-0.23637086262321227
erpnext/non_profit/report/expiring_memberships/expiring_memberships.json.utf8	1.125917356582678	-1.9071383115692562	-0.22746352775945802	1.3116392526820668	0.660344525719303	-5.539113160848862	1.8113191048148476	-0.046360945048122375	-0.6126992410106539	0.30295913353066906	0.4984098152082621	-0.12227669612443154	-0.003505985088236222	0.05307148659101945	0.2192460598675016	0.7131857585676543	0.07055838159337997	0.34973763740405633	-0.1272159436963399	0.04371385900823678
erpnext/non_profit/report/expiring_memberships/expiring_memberships.js.utf8	3.569017416399138	-0.3331165059784806	-0.2866508313835293	2.64566576604022	-1.2535430215048111	-0.26122408665650587	-2.114783430175096	1.0474397888569782	0.9066412144325497	1.4341651057212241	-0.15006421164248782	1.219948549118073	-1.5128481844879311	2.9545678747403215	-0.9488227867604928	1.275926060717337	0.7193863836628656	-0.6728596455229721	-1.6429434464297754	0.6503559482301624
erpnext/non_profit/report/expiring_memberships/expiring_memberships.py.utf8	7.161026612946963	-2.4687185848728728	-0.42946206899895634	4.058986481800798	1.7440954309187793	1.6815615627404212	-3.6460048181848306	0.49090266539109245	-0.6302586606146345	1.966030626315314	0.5430311783491597	1.961170939229379	-2.3435433851316763	5.0229136390208335	-2.679576950557916	0.7879676354106898	1.0410506442548275	0.6478289327711955	-1.1947967689500048	-1.051983619060905
erpnext/non_profit/doctype/grant_application/test_grant_application.py.utf8	3.3860301266010837	1.7549326697199406	-0.18554730844187695	-1.1269757084250938	0.3642061069304575	-0.07436570312034138	0.035597903701649176	1.913128339825471	-0.31414067931413847	0.19743887896499168	-0.07267502599149625	-0.1452468500909662	-0.07967083289650315	0.014362757317245295	-0.027176572338178648	0.09943616220339808	0.130229096602718	-0.162149171434874	-0.2668881975213217	-0.1436660328604663
erpnext/non_profit/doctype/grant_application/test_grant_application.js.utf8	5.676691216034588	-0.3936221447104939	-12.869548191409725	-6.155944870012069	-1.5689209234315684	-0.8453156339377077	-0.7650248546000656	0.26380293318274683	0.07174046596703125	-0.7599073983698769	-0.004214559795718828	-0.4035149740960673	0.8569361131299861	-0.3286247573955413	0.029111259951973716	-0.17267674173947062	-0.12584615597906643	1.2379648585923313	-0.4063323681285507	-0.8054706825373898
erpnext/non_profit/doctype/grant_application/grant_application.json.utf8	72.19485787288933	-162.44652596430365	53.60847724428257	-59.25598654206607	-15.30364948871791	15.02150636206117	3.5012735372392036	-6.37416046579564	-12.021315059272762	16.055428832883894	-7.434032570153611	1.9193528885316293	-7.553859049155975	24.427468053997185	0.7946332630563745	3.216462732941921	-2.0953162261706906	1.8619903819488006	2.002431762094196	1.3296381381372853
erpnext/non_profit/doctype/grant_application/grant_application.js.utf8	3.770909356325869	0.3395665329545466	-0.928627731198896	2.270198659124397	-2.02155585293693	0.23922116372181862	-2.076746627393346	0.2646733865282692	-0.6869486199738711	3.1890441935450085	-0.6381292077762524	-0.24605200385073478	0.5528672121723734	-1.3509607114220106	-0.013264183966396267	0.6299804280851778	-0.62548306325597	2.7371071875342317	0.02014386618875166	-1.757471044619979
erpnext/non_profit/doctype/grant_application/grant_application.py.utf8	10.017580299202574	0.947626086195692	-0.9348221367743407	4.374419011739213	1.4704233228165715	2.944906437759479	-1.0816225047277437	-1.1336141051204556	-7.367911175558891	0.25855035404376936	1.8138420941072686	1.1910490948813444	2.143736814581473	-1.0802856234986138	-1.159874250186689	3.574648606971402	0.4758354686309693	3.2208210483813065	-0.31060491509921845	-1.9068710910459743
erpnext/non_profit/doctype/donation/donation.json.utf8	7.482233879737119	-12.574915481513992	-0.14467832963832658	6.027221838419234	2.671129234075393	-2.192940141432855	-6.536130851352033	2.6335352898224538	7.438523744942693	-5.874308839327441	0.6235074102206034	0.10988770374595247	0.9854953782663678	-3.153833414094266	0.36355310360255855	4.037680892039954	1.3920622807489405	1.8761672045763076	-2.0535170871303814	-2.9670017720619297
erpnext/non_profit/doctype/donation/donation.py.utf8	31.4507540452209	-8.316031687720262	-9.4338527620101	22.636587655177607	5.6044094696842475	6.909434444353812	-7.738306721403022	-5.075685887540092	-20.363317845248947	-2.1982901513636923	-9.152084229287812	4.565301022253876	-3.245199815360736	-5.059788184374602	-6.243322910246456	0.577437486276476	2.3642613344917134	12.818220436214268	-0.13026918660559206	-16.88138617055171
erpnext/non_profit/doctype/donation/donation.js.utf8	4.3018086889883875	0.01827425140210892	-1.3072958002679225	2.7544193941966038	-2.137585104365485	0.24494080120970071	-2.277604020558397	-0.4345707729950096	-1.4542189202103912	3.602702177264634	-2.6742244792016687	-0.12665301360304482	-0.009369142225397139	-2.6554403499478325	-0.20473901478524006	-0.8694039521985881	0.015653041770733362	1.8987218094774738	0.6042177585034489	-2.995892202982201
erpnext/non_profit/doctype/donation/donation_dashboard.py.utf8	2.003202367439375	0.0967571870716561	0.0048195689858996655	0.5657576706625371	1.9907757318624721	0.48778220301003533	-0.035510332851425686	-0.31163076215716057	0.08026882193767161	0.16076842747816367	-0.3235898739193561	0.05865846486525888	-0.02659399354870394	-0.3444336669811393	-0.05952366102248953	-0.44403144390693405	0.20373943435006792	0.711824301411264	0.1017206886291726	-0.8112173127283465
erpnext/non_profit/doctype/donation/test_donation.py.utf8	14.580495462246414	-0.9412379186697368	-12.108582834843132	0.5078072577070428	1.6737029709421536	1.3096595600479688	-2.2645365734822787	5.305204306878429	-8.325634774164477	-2.900089362423557	-5.354356610634756	1.3265223069618324	-1.2787271173737897	-3.5242300775096993	-2.754164931286025	-1.9516849867891592	1.1555248128352036	2.548631581788262	-0.2602477531662592	-5.161340769753207
erpnext/non_profit/doctype/donor_type/donor_type.json.utf8	6.975319168320356	-12.260667209123762	4.045406975239317	-3.38164068620073	-0.30096448832823974	-2.1325670926300972	0.8077853475232415	-0.42597306176591837	-0.9362555046782388	-0.1121023883917872	0.07372407234817875	-0.19909979469282754	0.6291697857341142	-1.3276642717421392	-1.7890314182540006	-0.8004287044438343	0.12402178104678929	0.299874384793987	0.40476183828420054	-0.5453552520610203
erpnext/non_profit/doctype/donor_type/test_donor_type.js.utf8	3.604473297069189	-0.25641426139468654	-7.888858886850901	-3.940407319405922	-1.1972292488575864	-0.9618575380716534	-0.4095065045225854	-0.2938855143019406	0.1996371695430412	-0.30692703020791584	-0.38370311331746143	0.0009061842460370709	0.15838987220899248	0.035301081260198014	-0.5325241146916861	0.15349804252231627	0.3014099798841922	-0.113131011437294	0.06712514970842123	-0.036068192675491426
erpnext/non_profit/doctype/donor_type/test_donor_type.py.utf8	3.417401993683731	1.714171306914295	-0.1902057154801176	-1.098699637901527	0.3707614188206153	-0.1396538847469715	0.0510548966930912	1.91514640519491	-0.29456959691063067	0.18109032282813808	-0.16778188376414124	-0.10001121996030887	-0.16694387519626902	-0.017712674470210278	-0.11717788836670413	0.13254424155531985	0.13513856589993403	-0.21856338883973367	-0.21926103545846926	-0.09287111107258433
erpnext/non_profit/doctype/donor_type/donor_type.js.utf8	2.032490954333353	0.9218949688270252	0.2820274959816058	0.7348087202199775	-1.8217617231531626	-0.11703493855169188	-0.8073720287026769	0.503893927872479	-0.2122319114131546	2.0818770640362647	-0.5180736326231066	-0.2315166381155847	0.10943863508953822	-0.5714205023874311	0.125409110442065	0.7126303982334513	0.29212757914085463	-0.3515448842971203	-0.22113481209614244	0.2985201466772384
erpnext/non_profit/doctype/donor_type/donor_type.py.utf8	4.59598855209383	2.563998257301238	1.7396678219334434	0.2177259148629188	-1.2178102301137477	-0.1951775944142352	0.015320471802237865	-0.6582193950904915	0.2764245451772696	-0.1743082271264652	-0.15897945307066963	-0.05660672425868979	-0.07927284245002424	0.16557617563845542	0.0036780432159988496	0.09256132561510763	0.16138057452554128	-0.011397081195502444	-0.06202417752747156	0.008995164009159042
erpnext/non_profit/doctype/certification_application/test_certification_application.py.utf8	3.89915109771917	2.0125178095426532	-0.08603863141968214	-1.1841907031278134	0.5539579369123928	-0.049249948388240365	-0.0020324208913023306	1.912368300515367	-0.3680346710451814	0.24223179764816344	-0.0890939020157588	-0.13768954444476109	-0.11515041253217878	0.045198161543785094	-0.038244199741348156	0.10272216099593921	0.12614404210720276	-0.11751883951430603	-0.27327099826060236	-0.1916677060355554
erpnext/non_profit/doctype/certification_application/test_certification_application.js.utf8	3.1502698353361516	-0.42606858460991887	-7.342572022072212	-3.691672913942344	-1.2877082792604646	-0.6609185445488187	-0.7169831932214566	-1.761097645316095	0.3545098433340685	0.032639952640111845	-0.1911290911829603	-0.12183380111162136	0.4717830025156702	0.3292448694198692	-0.20672180072402496	0.26813405272934693	0.32695633233289867	-0.1333817076466	-0.0035883478311222843	-0.19208282149749206
erpnext/non_profit/doctype/certification_application/certification_application.json.utf8	26.830683120689958	-58.35125577981689	19.714945924472886	-21.164568344220104	-5.1238720810775495	3.929273214758788	1.9550855140043806	-2.74429401832136	-5.615011454172507	4.450977191197266	-2.9815450952733595	-0.3392460408978235	-1.629317913247227	5.421773661079894	-1.3517655615485773	-1.012397094389136	-0.0005663705001087587	0.49546215562893164	0.12302036792549338	-1.816485475664615
erpnext/non_profit/doctype/certification_application/certification_application.js.utf8	2.0048313337369397	0.9619524324668834	0.28606949863868947	0.7089792812132819	-1.8304435437096371	-0.05172749748644461	-0.8290222976913716	0.5030598543071796	-0.23121079031725159	2.0974668967751886	-0.4280821410209269	-0.2780153676268485	0.19836269488346056	-0.5449642739472021	0.21781577309387246	0.6891514367889121	0.28685543293260096	-0.3017933702048238	-0.28238564204859457	0.2546814298967951
erpnext/non_profit/doctype/certification_application/certification_application.py.utf8	5.077737656129269	2.862344759929597	1.8438349059938788	0.1322348496366323	-1.0346137120219696	-0.10477365805550404	-0.03776684578215566	-0.6609974997700346	0.20295947104271878	-0.11316675230643958	-0.08029147132228714	-0.09428504874314197	-0.027479379785933983	0.22848701165245072	0.08261173184135484	0.062739245055727	0.15238605073281003	0.08964746812992516	-0.11603414032960471	-0.08980143095381203
erpnext/non_profit/doctype/membership_type/membership_type.json.utf8	3.6023641074867303	-5.539647744560709	-0.3677475409192874	3.263563187891725	1.5018797385427736	-1.087770155787052	0.5149070476845302	0.785601514750884	3.1298834222389402	-0.9213289420542835	1.1513165735943471	-0.36994332506087924	1.479065659803555	-1.9811155758961247	-1.0197678216123858	-0.03621454152820486	0.44812711867456867	-0.19170859974777696	0.7436836466026909	-0.37691327946991177
erpnext/non_profit/doctype/membership_type/test_membership_type.js.utf8	3.3548617158989456	-0.5361157931567221	-7.762637971670879	-3.387557779971631	-1.1834217527279156	-0.8796252081566767	-0.8203520403121377	-1.8180488253654252	0.43595850273798203	-0.1766214683544979	-0.6163113988696269	-0.13280737141959312	0.4280120066102952	-0.03269970346789228	-0.17946070518078336	0.15812814269494516	0.17702638729473866	0.18024781499946926	0.14641108395753685	-0.20583849583468292
erpnext/non_profit/doctype/membership_type/test_membership_type.py.utf8	3.4168846278615157	1.7120768579121426	-0.19379800635311667	-1.0919268157980815	0.3766399084566211	-0.1372428091121083	0.0551224052097896	1.9064427219791649	-0.2957757741335711	0.17742821163938993	-0.16750530269533195	-0.09781503578592396	-0.16706039787162313	-0.016943993738159198	-0.12085535594370082	0.13482727423793606	0.14068066776480068	-0.21267848647116788	-0.21821398756424534	-0.09782469890293638
erpnext/non_profit/doctype/membership_type/membership_type.js.utf8	4.000640106025429	-0.6924607996033274	-0.7753776602200778	2.1953250168027783	-1.5014933255751797	1.3542227033667402	0.2796040715410687	0.016810357934428057	-0.10115451116251045	3.5183606795848767	-0.5268489952014976	-0.3067329536126256	-0.05660908075251877	-0.3127886677138572	-0.4087799878736249	-0.05343307606289402	0.12082049535494543	-0.07066068534227005	0.41646055243467245	-0.30077235978600575
erpnext/non_profit/doctype/membership_type/membership_type.py.utf8	8.026927719190184	1.7725802887413837	-0.2588067674285341	4.128929950020093	0.6640976857526654	3.305844612670585	4.103564115205948	-1.5256360847583437	-0.38256694018064114	1.1258435461603415	1.0692926907405707	-0.6131342701865808	0.6011620612945155	0.3089246412846714	0.31065161480857306	0.6270173518848415	0.6911048016270991	-0.9837979438625233	0.7924000126939383	0.32498637602379243
erpnext/non_profit/doctype/volunteer_skill/volunteer_skill.json.utf8	5.703588217214493	-10.664262372785965	3.6875556522689408	-3.465202596348389	-0.7891048001201135	-0.294792903886012	0.5338206220641807	-0.5343135204059741	-0.6349394134182801	0.08467581818446135	-0.039664355988232806	0.045136912258686795	0.3884045510014004	-0.6945101064332637	-1.7948471716645782	-1.0360107539058505	-0.08795858192120774	-0.0058816482462626975	0.09897711340545332	-0.29237749570658217
erpnext/non_profit/doctype/volunteer_skill/volunteer_skill.py.utf8	5.064393356097522	2.8732648592231977	1.8649336958409761	0.10405239822593096	-1.046611251841916	-0.10035606971428604	0.028960458912992905	-0.6793216418202377	0.23575229496628058	-0.10531055539768934	-0.13089735048115814	-0.0697076333419893	-0.14216482690385418	0.20000330725858348	0.043448038186971336	0.12999970432518027	0.10543363822781504	0.039913217658669675	-0.11885650867771438	-0.07751133573555175
erpnext/non_profit/doctype/member/test_member.js.utf8	4.070885460682737	-0.32459932179668355	-9.198116574024395	-4.560029202422278	-1.3062724569781785	-0.9333935728332735	-0.44259629078935925	-0.47386720707308083	0.2623100291087473	-0.398263951374398	-0.23563306846046464	-0.0377180996755369	0.1792196527510696	-0.21766031140587164	-0.4452652010162717	0.3034741836950797	0.14288641449450928	0.22084823531343808	-0.12877807085337048	-0.43318873545054887
erpnext/non_profit/doctype/member/member_list.js.utf8	0.43406673021573394	-0.21665382976531686	-0.17798553976885556	0.23183078254444697	-0.05904860368989722	-0.12792014003145452	-0.1180669947319955	-0.057890582224652085	-0.1105772372503259	0.12638840275961408	-0.04444465243065122	0.02749703568072075	0.01277441271483231	-0.14128148467561813	-0.14836111749518477	-0.042297118472648276	-0.01173046174677101	0.19907312261048493	0.15114664830426316	-0.25246011786154265
erpnext/non_profit/doctype/member/test_member.py.utf8	3.3707873053635473	1.763590182574559	-0.17528898583703006	-1.1460611086797332	0.3616777477733196	-0.0670757032424663	0.09272654062867879	1.8963744036279453	-0.286052919158081	0.20010008719716865	-0.13885879188669706	-0.10849820376699137	-0.18887093083624018	-0.018880572674497102	-0.06802587595248039	0.1845645564766411	0.09813611491674709	-0.19992188434154223	-0.28695170555920213	-0.1441203433575996
erpnext/non_profit/doctype/member/member_dashboard.py.utf8	2.290060109635694	-0.08619793230929311	-0.3227304665202575	1.1218049799962453	2.200020060536998	0.6034998328110038	0.02086421378852945	-0.25268570543119484	0.35654715768819256	0.10995712688582676	-0.9008967472059194	0.2892637157416292	-0.25728633428089465	-0.21641067130207509	0.5540261992684459	-0.6761603350459303	0.5806891992229957	-0.2586938051886684	1.0752523596263617	-0.6169736317234236
erpnext/non_profit/doctype/member/member.js.utf8	7.5814675032866425	-1.9438523762465145	-3.389692784535946	5.6465133890581996	-2.061956342208992	0.05929613251227716	-3.948155006272956	-0.8509840928322565	-1.7041481542632457	5.683198153454084	-3.6500966489857682	1.0340504450214105	-1.7463096120851571	-0.8114890195018842	-1.261250463035013	-0.25455830901431253	-1.007673769396818	4.900039990843944	0.8328390408581676	-3.8256445748559056
erpnext/non_profit/doctype/member/member.py.utf8	25.68687031566917	-8.002139649469928	-5.381312257795124	15.08210016622379	2.920598618646964	4.308702402797282	-1.225922476426933	-5.1362229069310485	-15.618249349048595	-1.1297694778365883	0.45581487994836445	3.756269077289351	-0.6591908248177814	-5.229660612870043	-5.714193752489672	9.557997319628381	-2.336013448671061	15.428965960085913	-2.5074011697532192	-6.576533213601159
erpnext/non_profit/doctype/member/member.json.utf8	9.949191436640179	-15.95954289892734	-1.49650178614908	9.220905908590172	4.094091875857813	-0.7415047942897259	-9.479812890471296	4.165164601168096	14.407622860894202	-8.219067947704549	2.598281237039235	1.3240737941141474	1.0427393823963231	-5.04510269541698	0.563259429907664	9.503017849284374	1.2163956067156714	5.95035569297634	-5.3499877125126485	-1.4015798837415403
erpnext/non_profit/doctype/chapter_member/chapter_member.json.utf8	16.172758942442407	-34.96569892376129	11.87552194249617	-12.768629759578351	-3.289155308215225	2.1002341531727775	1.38507782610644	-1.8518722213388754	-3.415264669936347	3.471870585439125	-0.8428136405838083	-0.03401302369300057	-1.8201146288896024	4.321355558729019	-1.9366363632642285	-1.3557431983241823	0.9263476485576069	0.5214500859892004	0.06740163828912532	0.4641358082328623
erpnext/non_profit/doctype/chapter_member/chapter_member.py.utf8	4.553009910339107	2.613678142931495	1.7533663260539074	0.16864616627172108	-1.2302093923878434	-0.12265889851495917	0.05457068545710292	-0.6763120204989808	0.2819729797951027	-0.1485971552001536	-0.13143008757386934	-0.06622433976270503	-0.09994462721970782	0.16105713546856118	0.052278750709961457	0.14980056086119276	0.12792860687575716	0.008214474047957367	-0.13042255466716074	-0.043237324307703516
erpnext/non_profit/doctype/chapter/test_chapter.js.utf8	3.0814446376154194	-0.3900268134262072	-7.295317680251585	-3.766256321425212	-1.296851380999329	-0.6376566084217663	-0.507872187723231	-1.817986756935883	0.43958404669164225	0.07307710487823797	-0.3592754697615769	-0.013019819086609435	0.13062391419888394	0.2560382316267445	-0.33570630240161375	0.4694529393383783	0.22552046683456756	-0.2636179087977218	0.002180720943856757	-0.15060865715847244
erpnext/non_profit/doctype/chapter/test_chapter.py.utf8	3.3668006405137407	1.766242694282057	-0.17041226554949152	-1.149390212735845	0.3590318976845194	-0.06659246497270667	0.099108296203805	1.8953492944230148	-0.28519040802886975	0.2101592063131037	-0.13383918502150036	-0.11023862212990199	-0.1917395115079421	-0.01565865862768944	-0.06776605960742638	0.1761715756471245	0.09605446452557001	-0.21222394179781104	-0.2785888424859283	-0.1228851064066877
erpnext/non_profit/doctype/chapter/chapter.py.utf8	8.20913832148624	-0.46038143419080885	-0.6746275215401826	3.6989722462575676	0.7768492803854767	2.9005908946891337	-0.46904698684790463	-1.473927297525887	-7.570013758826981	1.0046294794301749	2.2299638758035876	0.25666671865844015	0.224499913394888	-1.2848454982926938	-1.3526473855822447	2.848476298489056	3.0995852579723304	1.9900902581973026	-0.16855176892182072	-0.4253521074296626
erpnext/non_profit/doctype/chapter/chapter.js.utf8	1.9818896011633622	0.9739663561947873	0.30182094591223196	0.6841181453856592	-1.8334912442892586	-0.043973518777427126	-0.759318629191963	0.4840968171005836	-0.20285272253139366	2.1109459475212304	-0.48413093388046574	-0.24174404028517782	0.08464299877786516	-0.5693664865449103	0.17482093920134278	0.756257732325256	0.2530434777664906	-0.3452054372551977	-0.28046261912360154	0.268506151343135
erpnext/non_profit/doctype/chapter/chapter.json.utf8	32.62063567643053	-71.55453621135456	24.112491467350317	-26.713059579891304	-6.6288628141033	4.943300100029739	2.805477846459752	-2.846122789921255	-5.481574719884981	6.499886046335184	-3.2873661740945654	0.21102635138538076	-3.181117471318705	8.609684988672365	-0.8352396774970013	0.9671358348324444	-0.8362081736372298	0.3228556371088783	-0.05843553503204174	0.28164785560245315
erpnext/non_profit/doctype/volunteer/volunteer.py.utf8	5.204813756038534	2.5223754575700057	1.3844805995756735	0.8732389890085375	-0.6432078491289209	0.6428047326827875	0.023165108792865735	-1.1864470186147906	-1.2121056508491082	-0.3803283705812886	-0.20121674274299967	0.22197795453593988	0.010607973230499172	-0.26681636263613856	0.09074093739122058	1.5827424382039694	-0.16593072234340722	1.1680527046687277	-0.9980854159968132	0.19388187966494394
erpnext/non_profit/doctype/volunteer/volunteer.js.utf8	2.9968747816360573	0.7671457804327864	-0.3222391944598665	1.5083220117209792	-1.9983148459631386	0.2924186121328046	-1.2451277608477977	0.33947238976735705	-0.3591379975902312	2.5722129181137605	-0.8468685662435043	-0.05333748753032631	-0.07605494503143019	-0.9852866388928688	0.043043536164742706	1.058318978341192	-0.37930504480151456	1.4196589471993328	-0.4665499165922139	-0.42830727709985833
erpnext/non_profit/doctype/volunteer/volunteer.json.utf8	6.344339883584354	-11.114884849059875	0.4458746695080325	4.741491420437883	2.2281400243527867	-1.0138162735078318	-5.846110613813671	3.165590596035487	10.725566984906287	-6.401903735278212	2.2240123731581942	-0.28715361133724165	2.54244838927003	-5.968604180528171	1.8733512411289375	6.174573066530826	1.3747591929734646	1.0378725766245818	-1.38737010749883	-0.6131347785216698
erpnext/non_profit/doctype/volunteer/test_volunteer.js.utf8	5.3471808625470825	-0.35681991554957065	-12.225779898135631	-6.073844512262208	-1.6553683425727252	-1.0758102400684648	-0.3328440330649875	-0.2660384886740041	0.3770494333553526	-0.47069912323177077	-0.15775215870297857	-0.16348214345183146	0.17946957796978938	-0.3344293360558127	-0.5366766068576354	0.14141407898174652	-0.014974363313449224	0.3651490017767792	-0.23632756172137892	-0.6560413908800055
erpnext/non_profit/doctype/volunteer/test_volunteer.py.utf8	3.368945625264182	1.76693936572063	-0.17092666884868907	-1.151047077287096	0.35773239928471057	-0.06826469101469002	0.09981911661602695	1.9006345793990151	-0.28077175283946015	0.2047616206895877	-0.13514183130781487	-0.11024073808557713	-0.19106454437237735	-0.016708144204334342	-0.0655608698671028	0.17737981500965827	0.09291138955508965	-0.21213687474668932	-0.2856242269399168	-0.12131387991669616
